-0.267078
0.0825244
0.529181
0.0798127
-0.0946082
0.83849
0.269057
-0.234415
-0.0609645
0.707423
0.792198
-0.449524
0.715747
0.107716
-0.648337
0.50315
-0.167177
-0.166241
0.255948
-0.0643992
0.744443
0.0617737
0.500004
-0.819455
0.609083
0.828606
0.28352
-0.142972
0.6885
0.41189
-0.249365
0.532377
0.316769
-0.57542
0.376474
-0.2761
0.0139634
0.355905
-0.281793
-0.0574424
-0.713617
-0.790114
0.305988
-0.659908
0.723758
0.145443
0.327313
-0.560271
-0.256956
-0.835713
-0.364309
-0.702527
-0.274817
0.800792
0.187164
-0.31543
0.369308
-0.144546
0.102359
0.420624
-0.378257
0.857605
-0.0819863
-0.102046
0.0238736
-0.0920088
0.578356
-0.822917
0.549298
0.0148255
-0.300882
-0.485284
-0.360305
-0.0203928
-0.109541
-0.844374
-0.376391
0.300545
0.701546
0.161597
-0.572114
-0.516234
-0.334623
-0.515332
-0.849388
-0.0290435
-0.160071
0.35065
0.656125
-0.246227
0.542755
0.0611704
-0.670258
0.0981166
-0.304679
0.226332
-0.410347
-0.139831
-0.155659
-0.859806
0.215317
-0.695855
0.455966
0.217144
-0.795602
0.127191
0.0372284
-0.785673
0.694726
0.810161
0.74158
0.841792
0.532324
0.0638335
0.338979
-0.140926
-0.58316
-0.546407
-0.662518
0.375884
-0.710924
-0.0233877
0.861754
0.757391
0.408094
0.0664815
-0.199943
0.218892
0.354226
0.530776
-0.433446
0.0406134
0.13602
0.0154498
-0.388797
-0.458995
-0.618601
-0.257375
0.704577
0.174257
-0.562551
0.0609236
-0.227089
0.291788
0.644239
-0.808223
0.474088
0.0270719
0.150682
0.624761
0.0537569
0.19734
0.365713
-0.572472
0.702513
-0.151604
0.835499
-0.132052
0.672171
-0.870428
0.806174
0.582696
-0.837616
-0.0562218
-0.710006
0.29986
-0.71326
0.150562
-0.185792
-0.596371
0.698436
-0.780025
0.634797
0.719671
-0.342005
0.140601
-0.533315
-0.808422
-0.768922
0.745932
0.0434692
-0.402035
0.195727
-0.0326705
-0.837727
0.0188511
-0.669533
-0.85427
0.467783
0.558114
-0.163831
0.339874
-0.432419
-0.123497
-0.529359
-0.508222
-0.312546
0.177594
-0.659567
-0.298006
-0.739845
0.309926
0.237946
0.542703
0.808501
0.448535
-0.545133
0.242249
-0.678551
0.463359
-0.458221
-0.735869
0.039449
-0.242176
-0.025705
-0.607729
-0.194267
0.766716
-0.0088334
0.412925
-0.456471
-0.249483
-0.401568
-0.532478
0.476524
0.00719998
0.852064
0.506733
0.650846
-0.765007
-0.578165
-0.556025
-0.600351
0.789501
-0.455333
-0.469867
-0.392724
0.206121
0.629139
0.521465
-0.188158
-0.5452
-0.194636
0.75615
-0.507353
-0.247388
-0.497603
0.0206748
-0.4224
0.0470308
0.153897
0.524561
-0.160452
-0.158874
-0.740043
-0.209964
0.306341
0.687839
0.173851
0.292696
-0.356261
-0.417042
0.211042
-0.471371
0.396542
-0.868482
-0.444346
0.43994
-0.300662
-0.346142
0.245579
-0.460495
0.479595
-0.173241
0.411604
0.056418
0.765385
0.842959
0.275011
-0.543558
-0.622706
0.424429
-0.4895
0.344163
0.510247
0.29702
-0.197968
0.753458
-0.343139
-0.337444
0.095301
-0.306719
-0.414174
0.788865
-0.509145
0.76651
-0.421837
0.591793
-0.0465293
0.746369
0.374114
-0.206324
-0.531076
-0.664002
-0.346388
-0.40954
-0.618818
0.819191
-0.17026
-0.598046
0.802392
-0.220126
-0.313278
0.673975
0.713748
0.160442
0.817754
0.15182
-0.77623
-0.348204
0.686582
0.690923
0.523845
-0.529292
-0.491064
0.410961
0.111082
0.534061
-0.386633
-0.65287
-0.543194
-0.79872
-0.127758
0.463062
0.678468
0.256438
0.522117
0.493521
0.823174
-0.515166
-0.323077
-0.809716
0.494655
-0.817292
-0.672746
0.409535
0.274593
-0.725893
-0.756845
-0.541561
-0.373616
0.422422
-0.668907
0.797717
0.54375
-0.546408
0.719905
-0.342602
0.121694
0.672195
0.233544
0.51349
-0.544646
-0.452018
0.406517
0.321944
0.410074
-0.345457
-0.320497
0.407468
-0.251158
-0.574388
0.351531
-0.710082
0.382999
-0.311636
0.80015
-0.415666
-0.167132
-0.180781
0.16908
0.786338
0.148693
-0.788851
-0.721241
-0.847934
0.594079
-0.0792518
0.597824
0.358768
-0.817145
-0.0540328
0.548547
-0.849412
0.262334
-0.0223835
0.126247
0.577279
0.596488
0.307492
0.482928
0.538831
-0.331395
0.16573
-0.655115
-0.0538685
0.86451
-0.0645274
-0.445573
0.760518
0.533593
-0.0554489
0.849686
0.718603
-0.868458
-0.222079
-0.651619
0.680779
-0.598124
-0.309281
0.664102
0.0353405
-0.526147
-0.247618
0.840957
0.0172992
0.365122
0.6335
0.580928
-0.571431
0.490359
0.260858
0.508937
-0.483855
0.788359
-0.0318116
0.367679
-0.360403
0.140099
0.536205
0.566085
-0.529397
0.486683
-0.5673
-0.56444
-0.203591
-0.026298
0.786904
-0.197511
-0.67628
-0.594909
0.443284
-0.166986
0.192941
-0.686996
-0.736746
0.74441
0.277743
-0.195675
-0.761389
0.255694
-0.01847
0.600787
-0.614897
-0.242235
0.618231
0.0952041
-0.604256
0.858196
0.821076
-0.426738
-0.408671
-0.642903
0.417013
0.00944846
0.501218
-0.861546
0.402746
0.198675
-0.79191
-0.426698
-0.666485
-0.728665
-0.566994
0.586723
0.0647708
0.0873289
-0.71412
-0.461991
0.448395
-0.343042
-0.743572
0.68069
-0.656631
0.166139
-0.0472072
-0.491583
-0.515862
0.78732
-0.191246
-0.747541
0.81799
0.0794649
0.631809
0.382781
0.0770554
-0.139255
0.197479
-0.198269
-0.245969
0.337271
0.837777
0.429746
-0.791092
0.48617
0.845215
-0.597195
0.395478
-0.773154
-0.601268
-0.118513
0.369157
-0.766789
-0.552255
0.29184
-0.432162
0.0742546
0.401747
0.553363
-0.713365
0.815953
0.418113
-0.653298
-0.720705
-0.288107
0.145783
-0.504743
-0.758224
0.352003
0.646898
-0.610838
-0.775456
-0.379648
-0.490449
-0.551575
-0.571222
0.723507
0.0418486
-0.236831
0.325583
0.314763
-0.800088
0.282373
0.735889
-0.643609
0.836841
0.578399
-0.495906
0.138912
0.707489
-0.406921
0.635507
0.197302
0.561358
-0.0383546
-0.239335
0.577798
-0.307651
0.850306
0.405331
0.313686
0.746177
0.827947
0.32928
-0.31268
0.486652
0.272946
0.868026
0.421266
0.342767
0.717032
0.465105
0.735611
-0.419158
-0.331662
0.522029
-0.812463
-0.0720697
0.24839
0.259716
-0.0165897
0.0416934
-0.0976586
0.382587
-0.423217
-0.0679028
0.157818
-0.0794628
0.684527
-0.835119
0.727582
-0.167026
-0.0684791
0.631181
-0.702136
0.348824
-0.719495
-0.398823
-0.391977
-0.795039
0.625147
0.312764
0.0354986
-0.0555264
-0.77109
-0.608716
0.197371
0.0457466
0.83797
-0.125166
-0.74147
0.494565
0.30119
-0.785774
0.268289
0.107865
0.748387
0.115965
0.178204
-0.773765
0.438247
0.101083
0.494911
0.452759
-0.661451
0.461766
-0.711642
0.471191
-0.588779
0.292588
0.107622
0.410873
0.774722
-0.575945
-0.411425
-0.760243
-0.4801
-0.0805539
0.200463
0.785012
0.380067
0.321888
0.291554
0.158778
-0.858372
0.560002
-0.416847
0.588704
0.82514
-0.370617
0.156625
0.845058
-0.322918
-0.246427
0.515513
0.183584
-0.579768
0.630795
-0.28409
0.837858
0.270015
-0.157616
-0.854056
-0.212724
0.622651
0.0339567
0.510739
0.86288
-0.0242896
0.0701517
0.343495
-0.581646
0.257974
-0.602282
0.827448
0.672405
-0.0242408
0.106794
0.261192
-0.0667008
-0.13915
-0.347911
0.482107
-0.0343467
0.475348
0.4779
0.00681046
-0.202954
0.366839
-0.497846
0.789412
0.464162
0.0758531
0.561675
-0.637257
0.498559
0.871585
0.0846701
0.257502
0.687207
-0.739841
0.717162
-0.702387
0.601156
-0.857402
-0.362332
-0.38001
0.176134
-0.108723
-0.833171
0.118334
0.350251
-0.439434
-0.811106
0.195321
0.684868
0.102426
0.316355
0.728372
-0.613962
0.859003
-0.0665798
-0.659843
-0.541775
-0.744625
0.404407
-0.440824
-0.0792229
0.180056
0.776754
0.244786
0.28993
0.800301
-0.00508217
-0.317848
-0.7485
0.619444
0.496554
-0.538747
-0.57728
-0.81097
-0.273483
0.858426
0.312838
-0.765641
0.352219
0.548202
0.803313
0.21021
0.8131
0.854211
-0.645451
-0.693737
0.557536
0.0472189
-0.824178
0.0576104
0.72556
-0.483507
0.277912
0.83494
0.657625
-0.434944
0.244672
-0.702137
0.47425
0.538691
0.815444
0.411042
-0.265471
0.223966
-0.102105
0.622211
-0.771077
-0.621264
-0.687025
-0.0257021
-0.410434
0.47024
-0.853941
0.191463
-0.193085
-0.223914
-0.179199
-0.61833
-0.226039
-0.149438
-0.439444
-0.709639
-0.788573
-0.15486
0.372851
0.424764
-0.300242
0.207028
-0.0355897
0.28812
-0.388136
-0.278335
-0.863763
0.456093
0.202476
0.51995
-0.242687
-0.547112
0.57023
0.0387832
-0.0208212
-0.216824
-0.604195
0.191708
0.211555
-0.477964
0.859462
-0.431607
-0.501333
-0.441219
-0.490464
0.765968
0.125722
-0.805601
-0.413116
-0.594736
0.157108
-0.537121
0.811976
0.454598
-0.183438
0.152719
0.738473
0.730863
0.713366
0.201483
-0.847961
0.327492
-0.4195
0.688126
0.447024
0.0534884
-0.511732
-0.660904
0.0658569
0.320607
-0.844503
0.0823337
0.867246
-0.553624
0.0518068
-0.783425
0.723341
0.86029
-0.030903
-0.102812
-0.474716
0.573049
0.861614
-0.392924
0.034227
0.737827
-0.2735
0.708006
-0.596965
0.00644753
-0.749441
0.497003
0.289104
0.868961
-0.569757
0.529754
-0.0104636
-0.680214
-0.864226
-0.0812372
0.746616
0.408632
-0.203887
0.0997688
0.297651
-0.230205
-0.0349354
-0.783353
0.131189
0.751485
-0.0784139
-0.0315633
0.0396274
0.515035
-0.591759
0.590524
-0.0609557
-0.33774
-0.0441036
-0.780062
-0.648686
-0.361729
-0.83072
0.42315
0.729838
0.237595
0.239391
-0.569012
0.59844
0.363258
-0.151275
0.827708
0.803654
0.625066
0.100343
0.217537
-0.815923
0.225313
0.77337
-0.442219
0.546846
0.510785
0.511681
0.0801664
0.720712
-0.613231
-0.829271
0.518952
-0.475063
-0.779638
-0.233508
0.507288
-0.735374
0.27221
0.405857
0.166734
-0.77583
0.229615
0.8401
-0.699943
0.436998
0.608091
0.400713
0.566484
-0.866515
-0.305933
0.762624
-0.199653
-0.614102
0.725544
-0.255379
-0.144603
-0.749968
-0.839801
0.619946
0.685644
0.68813
-0.661778
-0.334134
0.51618
0.258878
-0.751074
-0.535285
-0.360776
-0.0320334
-0.427644
-0.149894
-0.0197754
-0.733533
0.221365
-0.417846
0.1225
0.602302
-0.475212
-0.210156
-0.835646
-0.633815
-0.249675
-0.726596
0.0244114
-0.580329
0.385598
-0.456234
0.76835
0.869169
0.822731
-0.432578
-0.580719
-0.490994
0.736647
-0.374325
-0.410284
-0.588855
0.514079
-0.39118
0.683917
0.0747018
-0.260963
-0.471887
0.799257
-0.519652
-0.296768
-0.436532
0.317004
-0.674215
0.103487
-0.645258
-0.0594949
0.808422
-0.337469
0.467341
-0.872695
-0.465771
-0.648371
-0.493703
-0.437484
-0.761753
-0.466786
-0.794531
-0.442779
-0.454739
0.697671
0.55496
-0.259911
0.214533
-0.772949
0.71471
0.626918
-0.748294
-0.631503
0.700417
0.503876
0.752066
-0.386104
-0.760648
-0.13583
0.626689
0.383541
-0.742588
0.82935
-0.231447
-0.612567
0.122356
0.730463
0.367776
0.512452
-0.679788
0.79986
-0.109093
0.644518
-0.520733
0.350869
-0.737927
-0.157409
-0.0231633
-0.53779
-0.540577
0.720902
0.744363
0.09216
0.619959
-0.341952
0.317668
-0.0789988
0.214582
0.822502
0.480363
-0.547451
0.5984
-0.683443
-0.430844
0.206717
-0.794103
-0.342883
-0.510903
-0.433442
0.789411
-0.601179
-0.603908
-0.13793
0.376899
-0.662365
-0.495298
0.732785
0.451776
-0.6196
0.213426
-0.672828
0.58608
0.282293
-0.475347
0.45168
-0.203406
0.292651
-0.219648
0.0855636
-0.217673
-0.367515
0.355302
0.186683
0.545067
-0.0769639
0.235877
0.238272
0.824572
0.554849
0.124576
0.308057
0.192068
0.301799
0.142997
0.384011
0.477629
0.77276
0.414141
-0.242026
-0.460484
-0.147831
-0.544937
0.409093
-0.475399
0.824283
-0.510097
0.0930245
-0.00055078
0.182268
-0.401445
0.341184
0.785214
0.2452
0.434505
0.605224
-0.00905629
0.118676
-0.0557047
-0.504617
0.219115
0.28399
-0.500863
0.576192
-0.169497
-0.054189
0.528559
0.506308
-0.110695
-0.589103
-0.792063
-0.404678
-0.130267
-0.795784
-0.482996
-0.0246842
-0.443034
-0.78593
-0.0500323
-0.245739
0.0808001
0.546607
0.258242
-0.702289
0.374131
-0.754124
0.493403
0.0635244
-0.041688
0.777027
-0.542837
0.551425
0.644759
0.347737
-0.448475
0.543411
0.655666
0.533258
0.430754
0.645397
0.00604347
-0.350155
0.292437
-0.768031
0.161979
-0.373267
0.577181
0.194217
-0.124514
0.269763
-0.762599
-0.821816
0.613444
-0.211187
-0.719761
-0.482957
-0.836091
-0.0164834
0.301695
0.800378
0.41192
-0.453262
-0.619506
-0.110755
-0.519947
0.833677
-0.577407
-0.367223
0.861725
0.849407
0.74692
0.530525
0.608063
0.458924
0.78116
-0.719489
0.454489
0.533898
-0.612557
0.396716
0.150999
-0.0473415
0.0754447
-0.783696
-0.552835
-0.801231
-0.191632
0.0507877
-0.844318
-0.0839898
-0.0840895
-0.3034
0.707931
0.505382
0.191801
0.263131
-0.38325
0.209862
-0.238102
-0.290952
0.321586
0.612635
-0.408506
-0.854669
-0.24432
0.112312
0.662176
0.826406
-0.609665
-0.82893
-0.557929
-0.68897
-0.177083
-0.744508
0.837251
-0.551289
-0.750824
0.547544
-0.662989
0.493678
-0.724829
0.25688
-0.841383
-0.549097
-0.0844696
0.274204
0.253324
0.0788293
0.0380298
-0.328032
0.192588
0.818071
0.463321
-0.452788
0.378771
-0.304396
-0.334925
-0.37005
-0.199788
-0.204646
-0.780333
0.650083
0.276374
0.401504
0.120327
-0.119353
-0.703014
-0.376643
0.274986
0.808927
0.398877
0.621216
0.483103
0.224474
0.617514
0.0754405
-0.570303
-0.131074
0.689435
0.241224
-0.0564392
0.777588
0.311447
0.496828
0.565396
0.279381
0.711894
-0.183323
-0.601685
-0.0596386
0.560541
-0.325948
-0.0595692
-0.0329162
0.182343
-0.224107
-0.78625
0.774363
-0.73883
0.75736
0.167746
-0.816986
0.55165
-0.312742
0.524603
0.0438449
-0.361227
0.556547
0.241924
0.219338
-0.750922
-0.838613
0.822452
-0.678825
0.28714
-0.621713
0.604514
-0.690259
-0.714186
-0.536253
-0.530581
0.382829
0.46629
0.572848
0.339137
0.208468
-0.704005
-0.728348
-0.451578
-0.869086
-0.72835
0.108907
-0.46961
0.233645
-0.695525
0.565639
0.00685942
-0.438802
0.277817
0.749369
0.122921
-0.507016
-0.401397
-0.359076
-0.0191253
0.60403
-0.662115
-0.176033
0.0913697
-0.69839
-0.506108
0.236706
-0.404694
-0.378808
0.398947
0.482407
0.653979
0.522623
0.0997121
-0.318046
-0.7042
-0.789148
-0.58375
0.105348
-0.0464956
-0.350897
0.294209
-0.304117
-0.352629
0.755423
-0.20451
0.737375
0.296664
0.506727
0.611045
0.812868
0.56791
-0.360953
0.198807
-0.557196
-0.374695
0.586554
0.731911
-0.79981
0.728595
-0.521731
-0.12952
-0.283734
-0.177675
-0.0734616
-0.0924417
-0.702724
0.496946
-0.309637
-0.44129
-0.631506
-0.330832
0.423023
0.240799
0.656875
-0.294935
-0.611666
-0.257838
0.47422
-0.174408
-0.477862
0.435963
0.718827
-0.113119
0.1195
0.320211
0.568405
-0.566818
0.186331
-0.162263
-0.81498
-0.0335607
0.0882038
0.0258612
0.538887
0.431214
0.411427
-0.455427
-0.0734232
0.713035
-0.0731429
-0.843643
-0.49433
0.727361
-0.49962
-0.585612
-0.183567
-0.0766827
-0.22425
0.764052
0.553577
-0.570034
0.579847
-0.187142
0.244471
0.139062
-0.806959
-0.794493
0.291674
0.528907
0.383864
-0.606541
0.534893
-0.824287
0.213674
-0.640921
0.224633
0.416752
0.495333
-0.765109
-0.587227
0.159997
0.187273
-0.859392
-0.0839556
0.0190948
0.402647
0.391135
0.695001
0.0855049
-0.0365101
0.493593
-0.707587
0.62401
0.295602
-0.347815
-0.348543
-0.55971
-0.113864
0.22091
-0.00852298
0.264145
-0.371017
-0.211625
0.775877
-0.792207
-0.315615
0.751827
-0.241245
-0.122644
0.670541
0.733
0.653733
-0.481357
-0.686524
-0.670253
0.619905
-0.682644
-0.49487
0.078204
0.542223
0.0915584
-0.605883
-0.0172013
-0.191941
-0.0413502
0.804896
0.00265782
0.526405
0.578602
0.277619
0.286751
-0.81354
0.189806
-0.041315
-0.0556282
-0.662018
-0.0169667
-0.602027
0.830573
-0.431487
-0.817746
-0.47853
-0.211162
0.629292
0.796035
0.122071
-0.172827
0.439028
0.804185
-0.312321
0.655336
-0.695877
-0.226341
0.188113
0.871161
-0.649834
0.0955359
0.734809
0.848819
-0.135452
0.62701
-0.540776
-0.627633
0.762165
0.101176
0.230996
0.284676
0.403138
-0.0566945
0.359761
-0.144466
0.499078
-0.862043
-0.857488
0.0909776
0.435492
0.25556
-0.679842
-0.199846
0.507898
0.0596951
0.261738
-0.3874
0.834987
0.501841
-0.699567
0.701496
0.582671
0.00645477
-0.492371
0.392935
-0.472192
-0.00904599
0.502254
0.173748
-0.576392
0.496475
0.0371467
0.537394
-0.475537
-0.240428
0.331214
0.323503
0.253159
0.0616733
0.00989868
-0.307279
0.107611
-0.454775
0.0718865
0.672843
0.323835
-0.688321
-0.478805
0.254722
-0.399588
-0.512239
0.426957
0.256118
0.265823
-0.567661
0.488051
-0.0589128
-0.795872
-0.327336
0.158733
-0.582997
0.394132
-0.674584
-0.199682
0.623162
-0.413587
0.583706
-0.542851
-0.681488
-0.13948
-0.376623
0.752218
-0.451388
0.544166
0.280892
-0.0789269
0.00908285
-0.356227
0.691976
0.340499
-0.107178
-0.14844
-0.238221
-0.633181
-0.506266
-0.00959339
0.719664
-0.869353
0.862576
0.69933
0.620778
0.777104
0.568947
-0.429309
-0.0386255
0.213937
0.413179
0.671707
0.384538
0.370093
0.462313
-0.367715
0.583435
0.267463
-0.220837
0.0869919
-0.75007
0.729742
0.470989
-0.401819
-0.339771
0.8096
-0.364085
-0.256099
0.760411
0.0218407
0.832323
-0.359691
0.158771
-0.137884
0.30184
0.356836
-0.446649
-0.659731
0.303783
0.718156
-0.16067
-0.832901
0.708219
-0.551483
-0.226694
-0.268316
-0.4135
0.152218
0.358293
0.400917
0.21041
0.695758
0.14669
0.67127
0.0784351
-0.634479
0.0440438
0.823992
0.379747
0.31905
0.313727
0.341364
-0.507291
0.395726
0.658137
-0.136431
0.288875
0.0215842
0.248521
0.386258
0.576731
0.242104
-0.581712
-0.728951
0.760513
-0.254381
0.506657
-0.265105
-0.00219332
0.402172
-0.488286
0.852719
0.553647
0.645843
-0.546829
-0.740843
0.215319
-0.387621
-0.313984
-0.214696
-0.00514232
-0.164772
0.0886452
-0.570157
0.127504
-0.0741751
0.806015
-0.302267
-0.216875
0.788594
0.628849
0.847195
-0.380775
0.601316
-0.728143
0.689022
-0.591604
0.571393
0.0197386
0.509912
-0.338161
0.506043
0.720684
0.0492159
0.409173
0.619476
0.530422
-0.126167
0.162045
0.193758
-0.547147
0.207053
0.133111
-0.438543
0.605164
0.173042
-0.704656
0.0899342
-0.729828
0.121061
0.158936
-0.0980941
0.573132
-0.0207441
-0.56764
-0.648317
0.326617
0.46884
-0.692469
-0.262085
0.633256
0.0510621
0.866423
0.309898
-0.430586
-0.664258
-0.559216
0.188245
0.285122
0.392905
-0.0202177
0.405004
0.589361
0.151962
-0.362842
-0.214303
0.352399
-0.592775
0.356587
-0.210733
-0.482949
0.655405
0.354982
-0.247594
-0.0287765
-0.393727
-0.251221
-0.532676
-0.857895
-0.610566
-0.421047
-0.328132
-0.640577
0.499187
-0.421309
-0.0115336
-0.00737959
-0.645138
-0.108941
-0.846258
-0.155414
0.496876
0.805383
0.81619
0.845617
0.578334
-0.398477
-0.0656559
0.77971
-0.356163
-0.42934
0.543768
0.422922
0.829885
0.274009
-0.120923
-0.733696
-0.384413
-0.26901
0.575922
0.4923
0.62921
0.204029
-0.374637
0.730668
-0.672864
0.349143
-0.742005
-0.268459
0.356887
-0.298151
-0.0973339
-0.620879
0.302084
-0.125184
-0.812928
0.166284
0.867453
-0.0567288
-0.280966
-0.827647
0.571621
0.412598
0.797339
-0.796566
-0.77052
-0.242009
0.179079
0.0702694
0.770609
0.259257
-0.0091706
0.772549
0.177408
-0.683442
-0.581704
0.593077
-0.528087
-0.575262
0.113647
-0.368421
-0.465089
0.205763
-0.753074
0.262837
0.661323
-0.838038
0.813276
-0.808882
0.277729
-0.0586811
0.225531
-0.12675
-0.110925
0.253121
-0.371695
0.810977
0.110862
-0.0689653
0.285996
0.852182
-0.594131
-0.349953
-0.222133
0.0761827
-0.640514
-0.649457
0.841579
0.226293
-0.596329
-0.443966
-0.601324
-0.686518
-0.523176
-0.870208
-0.380551
0.143829
0.433747
-0.190698
-0.564025
-0.84878
0.706695
0.672824
0.345277
0.0702071
0.790392
0.030556
-0.292223
0.55814
0.0429135
0.450019
-0.376361
0.523081
0.0588133
0.767481
-0.102287
0.70878
0.369833
0.0348988
-0.537139
-0.597731
-0.627322
-0.518204
0.695306
-0.588419
0.0681037
0.57346
0.786653
0.538897
-0.722398
-0.537747
-0.548069
-0.445684
-0.690309
0.594984
-0.273831
0.102827
0.619831
-0.0992912
-0.226606
0.111986
-0.317693
-0.0457384
0.568962
-0.595811
-0.775369
0.24015
0.208829
0.813858
-0.719103
0.69257
-0.852987
-0.138525
0.677333
0.0611175
-0.569834
0.314409
-0.245312
0.277143
-0.22531
0.117906
-0.289819
-0.868159
0.0719672
-0.348343
0.796969
-0.475231
0.860684
-0.0164896
-0.225927
-0.77268
-0.504302
-0.569794
0.778142
-0.596638
-0.337605
-0.00251695
0.731939
0.524415
0.0519058
-0.247157
-0.837964
-0.273067
-0.366405
0.687506
-0.66985
-0.260422
-0.635846
0.44975
0.494812
0.673131
-0.690396
-0.29777
0.506231
0.442267
0.372925
0.865903
-0.682209
-0.596397
-0.463409
-0.757999
-0.10978
0.774285
0.810633
0.268295
0.293929
-0.239909
-0.771279
0.750614
0.45301
-0.0852178
-0.174409
0.388576
0.872113
-0.772512
0.431466
-0.00142427
-0.101336
0.112344
-0.685615
-0.0620415
-0.0149563
-0.119988
0.689716
0.460097
0.419603
-0.247652
-0.186203
-0.766777
0.038556
0.39273
-0.213624
0.494209
0.589902
0.655771
-0.326108
0.419536
-0.69319
0.145414
0.235823
0.720281
0.472648
-0.535171
0.640444
0.401635
0.834604
0.374646
0.656275
-0.255663
-0.366996
-0.791874
0.298443
0.0132548
0.095587
0.625989
-0.562116
-0.843438
-0.30752
-0.591795
0.0283045
-0.63266
0.718715
0.741254
0.144031
-0.829035
0.541146
0.452559
0.161759
-0.0483418
0.274151
0.633411
0.323108
0.423164
0.628402
0.0743425
-0.287209
-0.546749
0.541546
0.631801
0.0241721
-0.151014
-0.54478
0.676557
-0.737637
-0.444182
-0.559879
0.76897
0.267486
0.810242
0.0369942
0.698774
-0.842309
-0.453078
-0.583281
-0.213831
0.379068
-0.0840593
0.0781781
0.484441
-0.237811
-0.676268
-0.614865
-0.805216
0.614673
-0.76642
-0.0829987
-0.0308113
-0.366005
0.615288
0.361255
-0.286809
0.528049
0.0770604
0.159847
0.591363
0.0564497
-0.805729
-0.252747
-0.0544132
-0.557644
0.172153
0.792713
-0.277829
0.30128
0.553492
-0.0562868
0.650913
0.463086
-0.557812
-0.805436
0.136363
-0.0403511
0.0754151
0.294729
-0.534971
0.386152
0.718736
-0.769783
-0.483478
-0.735498
-0.315772
-0.175574
0.245033
0.246638
0.804181
0.21628
0.771731
-0.619407
-0.650055
0.73063
-0.512647
0.573191
0.206198
0.608355
0.671526
-0.0566356
0.415088
0.401132
0.0942842
0.0186995
0.344563
-0.0483865
0.312664
-0.661845
0.335162
-0.213213
-0.223983
-0.183141
-0.168745
0.871605
0.381104
0.491528
0.856436
-0.773569
0.136558
0.728437
-0.111667
-0.661249
-0.452629
-0.250936
0.565867
-0.498354
-0.211525
0.820247
-0.3723
-0.745472
0.621257
0.504796
-0.850864
-0.643557
0.45766
0.734901
-0.187031
-0.0197358
-0.578222
0.593259
-0.00193713
0.742929
-0.0247161
-0.706788
0.759359
-0.364357
0.0913696
-0.561573
-0.257898
0.30799
-0.624645
-0.466318
0.637148
0.758435
-0.629921
-0.538941
-0.542161
0.840923
-0.327809
0.556972
0.408397
-0.0976208
0.167583
-0.775763
0.858495
0.145612
-0.648539
0.763624
-0.787999
0.678324
0.107821
0.223175
-0.0648219
0.0959591
-0.0605352
-0.819598
0.0994496
0.39663
-0.848806
0.530878
-0.125101
-0.422772
-0.370696
0.691707
0.187757
-0.0771598
0.726495
0.800783
-0.0100851
0.0119029
-0.232444
-0.368493
-0.00972109
-0.124166
-0.0408099
-0.723317
0.0168535
-0.260739
-0.416987
0.130691
-0.0289038
0.110727
0.367165
-0.503349
0.487573
0.0490321
0.131078
0.354007
-0.732491
-0.708376
0.87211
-0.00830797
0.0537231
-0.604651
0.314515
0.587515
-0.521239
-0.746218
-0.803859
-0.67934
-0.672895
-0.0178374
0.255489
-0.0937968
0.768918
-0.65953
0.0859167
0.24205
0.285908
-0.574845
0.641299
0.757665
0.285289
-0.131189
-0.397487
-0.0549601
0.769025
-0.252036
-0.214697
-0.357692
0.530851
0.189198
-0.439165
-0.127758
-0.658166
0.707221
0.0784486
0.616806
-0.813001
0.46958
-0.066181
0.391077
0.355952
-0.3249
0.564566
0.696434
0.12984
-0.666979
-0.622353
0.708061
0.652792
0.0851423
-0.432086
-0.0380315
0.42268
-0.526092
0.706514
-0.684684
-0.778945
-0.176047
0.530623
0.804266
-0.756126
-0.664266
-0.280897
0.147933
-0.0411326
-0.252556
0.631098
0.173481
0.264739
0.566779
0.365564
-0.565627
-0.349087
0.144603
-0.740922
-0.202049
-0.0582406
0.725087
0.354179
-0.660513
0.315223
0.66226
-0.614632
0.400592
-0.558751
0.0799157
-0.868211
-0.707648
-0.384677
0.146063
-0.184449
-0.337046
0.159099
0.403021
0.810385
-0.16901
-0.0604236
0.0559808
0.640472
-0.698353
-0.448015
0.485195
-0.388093
-0.739194
0.273092
0.217195
-0.134628
0.107955
-0.501531
0.329768
0.626069
-0.550871
0.734462
0.717087
0.793469
0.379754
0.436541
0.0807973
0.47566
0.76886
0.430011
-0.105646
-0.141656
0.744243
-0.373449
0.0304762
-0.668124
0.770014
-0.0956179
0.790398
0.419741
0.0660193
-0.106528
0.214794
-0.504971
0.687259
0.538062
0.455814
0.611844
-0.359864
0.779066
0.479165
-0.600357
-0.609969
0.238507
-0.548444
0.627287
-0.321019
-0.56891
-0.575138
-0.607276
-0.333519
0.340661
-0.730727
0.754925
-0.209812
0.488244
0.786276
0.169608
0.248
0.352895
-0.00062107
0.850085
0.745493
0.333909
0.861126
-0.627985
-0.0556533
0.552498
-0.122441
0.781059
0.5791
-0.766588
-0.280775
-0.290555
-0.560918
-0.779363
-0.06153
0.716987
-0.188552
0.774542
-0.0545252
0.351131
-0.0786935
-0.5537
-0.753432
0.701677
0.825376
0.530877
-0.789767
0.424152
0.677214
-0.394102
0.733173
-0.823723
-0.207476
0.367539
0.0179324
0.495717
-0.684595
-0.0156028
-0.855487
0.396928
0.736446
0.712148
-0.538787
0.637594
-0.369485
-0.28394
0.639866
-0.768024
0.429111
0.58014
-0.0496066
-0.771361
-0.0726917
0.224005
0.399414
-0.32361
0.804609
-0.183697
-0.794651
0.108996
0.776336
0.0103342
0.62828
0.328499
-0.445543
-0.538203
-0.735596
0.277275
-0.479727
-0.178001
0.222491
0.0802241
-0.835905
-0.816607
-0.800292
0.0927421
-0.452804
-0.601924
0.812059
-0.414077
-0.420208
-0.152288
-0.0537822
-0.48316
0.509202
0.448794
-0.661749
-0.155904
-0.284198
0.850648
0.623815
-0.767954
0.367745
0.102015
-0.0185111
-0.113279
-0.588843
0.832177
-0.324554
0.25907
0.333563
-0.469756
-0.629987
0.00759832
-0.163757
0.433076
-0.68212
-0.830283
-0.462185
-0.359728
-0.808295
-0.00645186
-0.243749
-0.427312
0.276432
0.600341
0.632825
0.0501526
-0.812696
-0.582494
-0.314054
-0.235956
0.196083
0.338748
-0.0312647
-0.625164
0.00767931
-0.510047
-0.856572
-0.492826
-0.370966
-0.568375
0.470659
-0.0590766
0.0624065
-0.22411
-0.0108992
0.527212
-0.741974
0.582585
-0.271863
0.593022
-0.44012
-0.12036
-0.833942
0.729385
-0.33476
-0.3295
-0.265852
-0.799224
0.361819
-0.674634
0.0286659
0.187159
-0.732822
0.418737
-0.530569
0.489803
0.43168
0.29569
-0.597268
0.861749
0.173928
-0.252769
0.568115
0.121248
0.792239
-0.0805894
-0.691054
-0.296225
0.84818
-0.828074
-0.310408
0.438659
0.449547
-0.275868
-0.813517
0.769239
0.615451
-0.497794
0.301415
-0.388293
-0.43146
0.12166
0.086956
-0.358762
0.065822
0.87207
0.701058
-0.847409
-0.0477183
-0.217533
0.138687
0.337972
-0.326857
0.567708
0.593847
-0.41527
0.843092
-0.0006868
0.667149
0.763726
0.565657
-0.307073
0.414838
0.491413
0.410357
0.201962
-0.81629
0.252294
-0.230309
-0.214925
-0.05414
-0.645217
0.507617
-0.272002
-0.099549
0.709136
0.641866
0.288314
-0.815516
0.232889
-0.511732
0.0558998
-0.61856
-0.146777
-0.842652
0.415691
-0.398333
-0.2265
-0.618642
-0.714775
0.437703
0.295132
0.755746
0.809202
0.426806
0.139812
0.0227294
0.703609
0.67002
-0.65836
-0.256353
-0.319498
-0.775177
-0.656437
-0.149516
-0.454578
-0.504058
-0.406564
-0.228117
0.244617
-0.0371057
0.492205
-0.440296
-0.248943
-0.131572
-0.120059
-0.376039
0.651416
-0.861331
-0.0633576
0.739152
0.864768
0.025087
0.201329
0.589891
0.22791
-0.863095
0.0587587
-0.218887
0.727374
0.437172
-0.743038
-0.00772323
0.174708
-0.0298765
-0.462143
0.450696
-0.0908435
-0.163975
-0.540586
-0.257918
0.756687
-0.757828
-0.440152
-0.10636
0.71424
0.629199
-0.249912
-0.576503
-0.639312
0.593437
-0.77832
-0.0870996
0.299858
-0.286586
0.301106
-0.730934
0.524885
0.530046
0.651753
-0.378695
-0.721337
0.243404
0.529612
0.530093
-0.247439
-0.763548
0.0537939
-0.109897
-0.0721892
-0.871652
-0.632366
0.67948
-0.391664
0.722238
-0.276845
-0.0821069
-0.25166
0.628009
0.597565
0.375917
0.720448
0.0570082
0.244685
0.714692
0.327738
0.0136712
-0.674626
-0.361492
0.23183
0.818333
0.804448
-0.757576
0.101435
-0.152041
0.269259
-0.146252
-0.0704685
-0.227566
0.215932
-0.766673
0.871688
0.378733
-0.0883929
0.227937
0.682643
-0.541338
-0.043603
0.133821
-0.328634
-0.348782
0.482551
0.699804
-0.403979
0.815223
0.269192
-0.632104
-0.362689
0.169076
-0.573002
-0.426367
-0.609378
-0.474409
-0.469464
0.00145619
-0.761089
0.272193
-0.270231
-0.674196
0.751101
0.637837
-0.871686
0.457301
-0.383515
0.516304
0.148519
0.374491
-0.228811
0.612834
0.210475
0.611343
0.111217
-0.459034
-0.00458191
0.382951
-0.552341
0.243932
-0.485335
0.450099
-0.204699
-0.619774
0.502903
0.456712
-0.432882
-0.240341
0.227959
0.867697
0.297829
0.0817501
-0.168257
-0.266358
-0.146255
0.57749
0.218003
0.684666
0.783347
-0.440065
0.143644
-0.723679
-0.706154
0.398325
0.738526
0.368561
0.405002
-0.671424
0.650524
0.628738
-0.0982924
-0.00866645
-0.59148
-0.0888393
0.211074
-0.00945574
-0.194228
0.495303
-0.717072
-0.788137
-0.0371195
0.629238
0.475226
-0.407602
0.833214
-0.017035
-0.491949
-0.834211
-0.8693
0.648083
-0.750403
0.807667
-0.107131
-0.695677
0.323146
-0.843559
0.293135
0.829644
-0.847536
-0.813805
-0.516144
0.73288
-0.609799
0.07595
0.406337
-0.749292
0.739517
-0.627128
0.737038
0.813212
-0.182105
0.364733
0.574372
-0.324514
0.346603
-0.394266
0.189572
-0.789661
-0.374428
-0.286062
0.829546
0.478666
-0.328104
0.348891
0.63257
-0.223654
-0.343101
0.43628
0.135533
-0.0311834
-0.582056
0.103197
-0.756165
0.38706
-0.475862
-0.597471
0.58715
0.788426
-0.743877
-0.244049
-0.11571
0.48584
-0.202935
-0.807902
-0.100566
0.659411
0.804808
-0.812451
0.230703
0.107911
0.143106
-0.686682
0.241927
-0.731201
-0.543165
0.157969
0.187067
-0.47119
-0.176431
0.30942
-0.448771
0.104211
0.523846
-0.425299
-0.809043
-0.461874
0.421886
0.563974
0.120032
0.417029
0.330717
-0.0624503
0.48524
-0.705843
0.869587
0.377767
0.263487
-0.280748
0.448442
0.221112
0.423546
0.21999
0.579248
0.0035629
0.25884
0.781944
0.589362
0.846997
-0.429731
0.144295
-0.148481
0.670171
-0.314721
-0.709892
-0.225357
0.707439
-0.0785662
0.481604
-0.0568182
0.61609
-0.627861
0.555392
0.70005
0.399955
-0.850694
-0.562683
0.84372
-0.306587
-0.233043
0.489545
-0.00949058
-0.590345
-0.188573
-0.41822
-0.771258
-0.872783
0.616984
0.0334514
0.174449
0.581999
0.445992
-0.451269
-0.121051
-0.260283
-0.79255
0.150677
0.403659
0.0564923
-0.823522
0.299799
-0.257607
0.864607
-0.111435
-0.725151
0.313534
0.14888
0.595277
0.306219
-0.779565
0.503817
0.531885
0.145785
0.362766
0.779135
0.21991
0.399399
-0.350771
-0.257909
-0.056307
0.173022
-0.127083
0.3165
0.629529
0.451823
-0.577434
0.434892
0.813451
-0.569916
-0.591333
0.789312
-0.547533
-0.24383
-0.391182
-0.555197
-0.0593001
-0.584667
-0.0956626
0.400379
0.46382
-0.457507
0.493613
-0.11941
-0.626319
0.165197
-0.17968
0.676109
-0.728817
0.0819697
-0.658801
-0.44874
-0.132981
-0.0330454
-0.526868
-0.540103
0.542428
0.1206
0.816692
-0.358791
0.777352
0.277421
-0.149906
-0.290532
-0.611995
-0.366242
0.774584
0.519231
-0.672021
-0.377104
0.748
0.725695
-0.668015
-0.7916
0.321877
-0.648429
0.708845
0.522414
-0.555545
0.447103
0.459065
-0.397613
0.59046
-0.0726696
-0.144563
-0.507375
-0.482383
-0.285439
0.552671
0.235883
-0.152394
0.570701
0.476934
0.763294
-0.37153
0.373128
0.141329
-0.869979
-0.3057
-0.718694
0.509334
-0.521919
-0.324922
-0.0352813
0.537443
0.225435
-0.728929
-0.457156
-0.51253
-0.141512
-0.404638
0.397134
0.809871
-0.792985
0.159086
0.115806
0.799811
0.699384
0.0388112
0.762906
-0.842288
0.529274
-0.375742
0.0944269
0.172346
-0.544737
0.301857
-0.415799
0.803813
0.485889
-0.740108
0.561487
0.826014
0.679332
0.454952
-0.707289
-0.291359
0.119563
0.516525
-0.812957
0.849985
0.75822
-0.756402
0.0850777
-0.496568
0.207828
-0.408908
0.815424
-0.18635
-0.371016
0.450123
-0.578592
0.657792
-0.558255
-0.628041
0.525276
0.316858
-0.819159
-0.15974
-0.589592
-0.863242
-0.18615
-0.631103
-0.663093
0.584431
-0.80217
-0.0353886
-0.296012
-0.609438
0.336315
0.218773
-0.210554
-0.599042
-0.319484
-0.804756
0.713507
-0.487884
-0.219004
-0.275201
-0.254018
0.824511
0.0137007
-0.785044
0.772879
0.840814
-0.466515
0.34771
0.260071
-0.389399
-0.801202
-0.034794
0.231337
0.356534
0.579336
-0.614347
-0.467905
-0.482043
0.169056
0.587218
0.248697
-0.183416
0.316506
0.620107
0.388911
0.511526
-0.861266
-0.525338
0.625096
-0.703012
0.185464
0.563463
0.710225
0.0841626
-0.862495
-0.127453
-0.706492
0.513958
-0.176502
-0.223824
-0.380222
-0.456158
0.303688
-0.38859
0.404891
-0.618646
-0.107059
0.650906
0.522889
-0.191705
-0.451726
-0.328863
0.158115
-0.25504
-0.121909
-0.133956
0.282163
0.783114
-0.135455
0.409253
0.612263
0.629302
-0.641728
-0.102264
0.803692
0.326254
0.0686215
-0.0172471
0.322978
0.388161
0.590346
0.148097
-0.608379
-0.0399475
-0.667846
-0.554564
-0.0702803
-0.439203
0.808939
0.198528
0.539876
-0.210534
0.275766
-0.713242
-0.404991
0.704425
0.0204614
0.431615
0.267859
0.607648
0.387715
0.859273
-0.60401
0.687338
0.790897
0.110568
-0.28904
0.814504
0.0471322
-0.04757
0.038788
-0.634152
0.306996
0.173689
-0.560746
-0.771097
-0.259667
-0.397794
-0.308648
0.0252977
0.195584
-0.530742
0.614116
-0.517224
0.469584
-0.488329
-0.185017
-0.784752
-0.348144
-0.455931
-0.433898
0.590894
-0.235048
0.0526184
0.780016
0.61501
-0.790198
-0.514954
0.19219
0.821637
-0.602105
-0.106467
0.216583
0.718902
-0.48695
0.21252
0.292417
0.817318
-0.490117
-0.0111915
0.775
0.730728
0.867638
0.32267
0.594028
0.0130658
0.774844
-0.395389
0.544793
-0.800531
0.0101729
-0.597411
0.392706
0.146695
0.645533
-0.0811062
-0.398435
-0.824397
-0.358897
0.364251
0.139542
0.0272261
0.729539
-0.174714
-0.367594
0.541671
-0.290905
-0.648084
0.00792536
-0.413163
0.674786
0.854073
-0.867287
-0.776386
0.858052
-0.166191
0.127102
0.604341
0.304276
-0.564281
-0.544526
0.13932
0.705502
0.630323
-0.48635
-0.434698
-0.613936
-0.815394
-0.59441
-0.605026
0.792098
0.0420838
0.472862
0.458572
-0.330751
-0.579288
-0.629206
-0.385829
0.236068
-0.224032
0.539178
-0.455216
0.266179
0.278129
0.241834
0.438399
0.285347
0.382766
-0.0899567
0.239701
0.777308
-0.652163
-0.518971
0.512284
-0.0296471
-0.262887
-0.240357
-0.847942
-0.0424269
-0.1765
0.0778246
-0.303791
-0.648889
0.725633
-0.556186
0.392608
-0.22901
0.663782
0.548475
-0.698979
-0.578848
-0.847357
0.284152
-0.169486
-0.636612
0.402718
0.42609
0.451174
-0.806359
0.219631
-0.196006
-0.589745
-0.184365
0.834454
-0.765941
0.366218
-0.551936
0.393742
0.168985
-0.405829
0.513102
0.0542011
0.392691
0.786757
0.446642
0.667491
0.488862
0.381909
-0.583865
0.785282
0.0598149
0.441005
0.664264
0.402922
0.741188
-0.309568
-0.132305
0.283204
0.821153
0.49514
0.680946
0.241621
0.769376
-0.674695
0.128678
0.325842
0.422443
-0.216403
0.541452
-0.668289
-0.328531
-0.324455
-0.375917
0.82432
-0.60857
0.797496
-0.787173
0.864884
0.715889
-0.251535
-0.143213
-0.387619
-0.639464
0.140048
-0.683414
0.328801
-0.829563
-0.528092
-0.277506
-0.233442
0.494937
0.708983
0.0135103
-0.699269
0.708415
0.23459
-0.644261
0.517834
0.257379
-0.716759
0.786022
-0.847696
0.0125087
0.393736
0.739067
-0.417601
-0.0827009
-0.447068
0.794777
0.0520844
-0.808941
-0.553314
-0.364852
-0.552785
0.230447
-0.781106
-0.479667
-0.0808915
-0.80095
-0.814807
0.0755375
-0.325316
0.0938623
0.564952
0.8083
0.249999
0.801537
-0.564372
0.303949
-0.787695
-0.730225
-0.0184185
0.753198
0.00120065
-0.272277
-0.410457
-0.184579
0.135186
-0.628222
-0.175249
0.231037
0.3834
-0.51929
0.664197
0.133762
-0.384162
-0.0849657
0.351366
-0.576968
-0.851352
-0.308624
0.207355
-0.603356
-0.573901
-0.48692
0.567531
-0.237706
0.836786
-0.585598
-0.193596
-0.608761
0.633277
-0.560874
0.772424
-0.827172
-0.18033
0.275747
0.466695
0.287688
0.148271
0.357937
0.676895
-0.0376823
0.455461
0.121625
0.0185632
0.790766
-0.81343
0.748632
0.611255
-0.360675
0.731206
0.620112
-0.279453
0.160479
-0.264066
0.668222
0.712741
0.375475
-0.663958
-0.600285
-0.797608
-0.139099
0.387684
-0.0200944
0.109744
0.128802
0.194216
0.6899
0.519656
0.835783
-0.564144
-0.730554
-0.2388
-0.522087
0.499541
0.690338
-0.604563
-0.609144
0.589583
0.748535
0.340099
0.613453
-0.703739
0.114245
0.723014
0.439983
-0.834623
-0.55715
0.687354
-0.758066
0.268789
0.194718
0.550087
0.553249
-0.711781
-0.24852
-0.685887
-0.517091
0.501702
-0.528708
-0.349724
-0.541395
-0.3578
0.152011
0.725798
-0.263158
0.153791
0.20053
0.612634
-0.507607
0.377119
0.240838
-0.63529
0.304924
-0.786955
0.185855
-0.477812
-0.181757
0.422681
0.211445
0.791572
-0.277756
-0.273473
-0.238676
0.84393
-0.304075
-0.374058
-0.246791
0.46029
0.611517
0.115357
0.0163024
0.641447
-0.158502
0.386021
0.125929
0.747687
0.461853
-0.151373
-0.28509
0.300804
-0.832627
0.45693
0.16923
0.842559
-0.553253
0.498688
-0.0165063
0.715722
0.592593
-0.23249
0.0449917
-0.322797
0.412698
0.293391
0.628263
-0.572633
0.14118
-0.809371
-0.527819
-0.72492
-0.685816
-0.754657
0.480763
0.245287
0.783653
0.826529
-0.408645
-0.257484
-0.38644
-0.116438
-0.714626
-0.554391
0.663309
0.630137
0.770521
0.297058
0.192385
0.227236
0.494097
-0.130529
0.220865
-0.104037
0.249873
0.730017
0.307554
-0.304809
0.410796
0.669073
-0.00174254
-0.20665
0.659154
-0.174491
-0.290405
0.694823
0.0271239
0.141411
-0.494391
-0.680067
0.293255
-0.628888
0.867405
0.763914
-0.199962
0.238145
-0.180651
0.527058
-0.663659
-0.0416578
0.754603
0.0806621
0.0431013
-0.346178
0.305038
0.548304
-0.36439
0.703917
-0.415
0.543911
-0.35815
-0.691884
-0.261976
0.122809
-0.203131
-0.804145
-0.0596122
0.648194
-0.319506
0.310504
0.483687
-0.837684
-0.424023
0.812251
0.0178558
0.17802
0.0692832
0.433551
-0.0661602
-0.822988
-0.814865
-0.791776
-0.0890038
0.144979
0.0392178
-0.217202
-0.579342
0.151447
0.371981
-0.799929
-0.026419
-0.73129
-0.257989
0.827557
0.407189
0.180078
-0.792913
0.025462
-0.475
-0.843257
0.17037
0.233968
-0.273306
-0.793333
-0.833518
-0.0402262
0.0541036
0.330895
-0.53616
0.0896286
-0.585808
0.129451
-0.7363
0.143873
0.562853
-0.868477
-0.774963
-0.802233
0.303169
0.310116
0.0250994
0.106764
0.4944
-0.18663
-0.168369
0.377783
0.429267
0.357673
0.115558
0.530409
-0.435851
-0.0682715
0.641909
0.115397
-0.237434
0.349975
0.724777
-0.402311
-0.835512
0.675834
-0.137189
-0.169461
-0.071666
0.044638
-0.0840965
-0.448693
-0.300745
-0.702248
0.471615
-0.155243
-0.268367
-0.825749
-0.125709
-0.448159
-0.054772
-0.636087
0.621654
-0.626625
0.77184
0.18243
-0.538093
-0.51016
-0.861349
-0.196697
-0.413922
-0.542925
0.0642924
0.536687
-0.820723
-0.52485
0.527264
0.825112
0.390323
0.175059
-0.344723
-0.336613
0.36657
0.354078
0.317958
-0.00725249
0.643323
-0.0751057
-0.298304
0.765729
-0.499749
-0.399106
0.394333
0.69456
0.554317
0.290774
-0.540229
-0.865759
-0.320827
0.422891
-0.234437
0.373329
0.391041
0.818706
0.0437709
-0.646253
0.334198
0.450957
0.715282
-0.313629
0.713579
0.0202446
-0.47805
-0.605808
-0.469045
-0.451692
0.365164
-0.517967
0.819875
0.6496
0.670761
-0.304906
0.546
0.774851
0.280643
0.560799
0.855297
-0.0907344
-0.694074
-0.287279
-0.19833
0.268432
-0.346713
-0.156511
0.695879
0.744841
-0.480525
0.0135694
0.213418
-0.690711
0.523604
-0.369728
0.469008
-0.616242
0.466821
-0.392045
-0.822355
-0.844888
-0.304516
-0.630236
0.039432
0.668228
0.119734
-0.443762
0.581486
0.864698
-0.623957
-0.202057
-0.439668
0.0706149
-0.0981456
0.551419
-0.465135
-0.11914
-0.486265
0.813796
0.396082
-0.429374
0.607492
-0.212224
0.521137
-0.330467
0.550007
-0.287472
0.10576
-0.338144
-0.308781
0.213274
0.285145
-0.16222
-0.716961
-0.0157216
0.349136
-0.0712824
0.757191
0.401481
-0.156717
0.667174
0.399985
0.829974
-0.545988
-0.0910137
-0.538443
-0.870303
-0.756535
0.113728
-0.450743
-0.733371
-0.616942
0.814549
0.69302
-0.613019
0.363243
0.491813
0.490905
-0.584323
-0.304118
0.705994
-0.355478
0.333224
0.0516093
-0.0648762
-0.452026
-0.0810126
-0.439841
-0.205742
0.667087
0.450297
0.70174
0.701385
-0.498235
0.636373
0.518363
0.340105
0.859273
-0.78491
-0.782725
0.318703
-0.669231
-0.396976
-0.794422
-0.0312713
-0.471816
-0.449093
-0.137836
0.496179
-0.0530265
0.104906
0.269494
0.281874
0.578069
0.0403077
0.336932
0.14295
0.0300688
0.298586
0.850276
-0.132382
-0.594332
0.746773
-0.508334
-0.176451
0.113967
-0.577943
-0.718511
-0.0500484
-0.592809
0.192695
0.183365
-0.871374
-0.632709
-0.457247
0.373764
-0.657493
0.744088
0.507592
0.543031
0.0671501
0.386498
-0.514382
0.0613756
-0.530337
-0.614156
-0.733304
-0.354337
0.454528
-0.836829
-0.715123
0.527742
0.389017
-0.182106
-0.277085
0.00078219
-0.675304
-0.439144
-0.788454
-0.194435
0.339882
0.588098
0.343548
0.223343
-0.0900866
0.0160282
0.32897
0.450552
0.0434926
0.235875
0.65789
-0.587749
0.637823
-0.370157
-0.233983
0.791161
-0.637895
-0.0629362
0.395841
-0.266261
0.777269
-0.378671
-0.837864
0.328873
0.248114
-0.574283
-0.258439
-0.652647
0.789804
0.172535
-0.420313
-0.393456
-0.814974
-0.207674
-0.373533
-0.0686612
0.815745
0.157241
-0.0592778
0.670096
-0.668504
-0.0310526
0.276438
-0.482711
0.737663
0.0854533
0.534419
0.48415
0.219939
-0.101482
0.231136
-0.780445
0.800886
0.377295
-0.0426343
-0.423682
-0.0831664
0.145851
-0.343981
-0.516901
-0.231032
-0.210548
-0.135277
-0.444558
0.115708
-0.42344
-0.458267
0.67576
-0.505181
-0.794235
0.162291
-0.656467
-0.752043
-0.478681
-0.81259
0.745558
0.163345
0.196212
-0.532681
0.438845
0.549218
0.692711
-0.739406
-0.716314
0.379931
0.503204
-0.0609106
0.534577
0.295302
-0.53461
-0.153247
0.238601
0.50675
-0.675803
-0.667793
-0.312675
-0.331569
-0.397572
0.0748325
-0.640801
0.719296
0.385692
0.801248
-0.700723
0.741154
0.797788
0.422079
0.748456
0.770764
0.716121
-0.641549
-0.760428
0.0970999
-0.586737
-0.331851
-0.0418397
-0.821437
-0.288171
0.860417
0.854588
0.700727
0.411145
0.734971
0.480192
-0.29035
-0.333168
-0.676059
-0.267731
-0.732453
0.24044
0.231902
0.703337
-0.437226
0.355183
0.121159
-0.724015
-0.657575
-0.506356
0.508782
-0.354051
0.161827
-0.105956
-0.22627
-0.617987
0.101566
0.853917
-0.839942
-0.415565
0.285936
0.70881
-0.83317
0.165827
0.634492
-0.437766
0.597703
0.530343
-0.667603
0.0330581
-0.833322
-0.439127
-0.853874
0.722401
-0.125551
0.730601
0.247458
0.136766
-0.483649
0.436565
-0.462607
-0.790639
0.594255
0.571302
-0.238224
0.0496064
0.235608
-0.0433504
-0.474915
0.196998
-0.859693
0.702777
-0.224765
0.437178
-0.782011
0.556593
-0.279627
-0.208453
0.179384
0.727467
-0.67351
-0.824938
-0.595427
0.537105
0.365286
-0.571155
-0.850714
0.571448
-0.400614
-0.0669981
-0.49153
-0.281211
0.25559
0.797764
0.220157
-0.385917
0.0659654
0.0320416
-0.0180151
-0.844256
-0.617438
0.0238291
0.363974
-0.132295
-0.184651
0.040937
-0.487764
0.735964
-0.0472692
0.154126
-0.841911
-0.383545
-0.0949961
-0.801101
-0.63837
-0.31306
0.838613
0.402048
0.159185
0.860459
-0.205762
0.26722
-0.576411
-0.468824
-0.816516
-0.267305
0.565458
-0.0428521
0.146445
-0.642631
0.855697
0.768969
0.55782
-0.085217
0.0155616
-0.323469
0.589536
-0.392737
0.446694
0.256933
0.192606
-0.400302
-0.0660831
-0.179024
-0.115946
0.321759
0.38621
-0.0867458
0.174688
-0.824096
-0.738132
-0.697932
-0.674467
0.811148
0.56238
0.0625783
-0.836221
-0.339575
-0.789096
0.0292456
0.779259
-0.119599
-0.402279
-0.677265
0.231886
0.0608565
-0.0930503
0.535614
0.601648
0.489763
-0.792751
0.680855
0.755566
0.666445
0.509072
0.390788
-0.0540824
0.508309
-0.403425
-0.19735
-0.584754
-0.145424
-0.50547
0.675766
0.797112
-0.810888
0.460772
0.559771
0.488368
0.643576
0.140707
-0.421788
0.204182
0.38406
-0.457239
0.463407
-0.407422
0.346631
0.121835
-0.215288
0.331755
-0.198921
0.108378
-0.842953
-0.868392
0.668209
0.139139
-0.630009
-0.00676545
-0.0522655
0.20059
-0.676389
0.176547
0.67868
-0.838923
0.769519
0.747415
0.568015
0.0840745
-0.156871
-0.641825
0.675571
-0.22344
-0.537083
-0.452594
-0.478589
-0.271533
0.677527
0.32645
0.693077
-0.784973
0.0444256
-0.56224
-0.778231
-0.815547
0.709024
-0.632918
0.740095
0.411141
-0.138109
0.453586
0.36384
-0.818155
-0.041798
-0.45054
0.785177
0.660782
-0.420505
-0.0217411
-0.080007
0.689889
0.264008
0.797156
0.749113
-0.837416
-0.851188
-0.18768
-0.18828
0.676814
-0.108887
-0.778479
-0.1134
-0.0963004
-0.186957
0.380503
0.863429
-0.313011
-0.586273
-0.356024
0.0524087
0.132017
0.73529
-0.735642
0.032958
-0.0159195
-0.178596
0.849482
0.810058
0.693338
0.137407
-0.331193
-0.288549
0.0971416
-0.758677
-0.561215
-0.286134
0.150452
-0.678245
0.804582
0.558095
0.331727
0.641545
-0.0717272
-0.455985
-0.384625
0.411459
-0.827191
0.717578
-0.605751
-0.42276
0.165659
0.655074
-0.337942
-0.0826139
-0.752845
-0.00878
-0.639354
0.485089
0.659787
0.101113
0.847716
-0.373974
-0.756499
0.800118
0.221676
-0.60862
0.81389
-0.564014
0.830311
-0.419026
-0.506681
0.567824
0.593323
-0.633175
-0.316435
-0.834984
-0.520702
-0.525391
-0.79264
0.00351451
-0.385285
-0.240298
-0.104324
0.442081
-0.761047
-0.328359
0.137061
-0.773746
0.0111725
0.721464
-0.405328
-0.150386
0.16004
-0.731758
-0.599926
0.809074
0.0779051
-0.651717
0.705245
0.178804
0.179555
0.575358
0.655439
0.06441
0.619885
-0.507138
0.742846
0.23987
-0.723357
-0.0547573
-0.491166
-0.609673
0.0821021
0.722514
-0.537098
-0.633324
0.863924
0.478422
0.415673
-0.73346
0.555115
-0.785356
-0.610741
0.783382
-0.162168
0.401911
0.238265
0.538304
-0.432933
0.233654
-0.739872
-0.567302
0.0282615
-0.630236
-0.804716
-0.00517504
-0.75744
0.429085
0.0958177
-0.824421
-0.496664
-0.767141
-0.0291697
0.741021
0.612601
0.315875
-0.822855
0.272143
-0.292464
0.476986
-0.0328793
-0.392487
-0.67529
-0.408779
0.0891029
0.310324
0.124577
-0.0042452
0.837904
-0.582505
-0.631545
-0.727807
0.2827
0.0797235
-0.639346
-0.712892
0.548643
0.643645
-0.635583
-0.673636
-0.514552
-0.82511
-0.467524
0.553343
0.775238
-0.719423
0.0037534
-0.499694
-0.374214
-0.0418416
0.760918
-0.290938
0.39328
0.710644
0.75357
-0.615341
-0.0861065
-0.821606
-0.551741
0.0583517
0.678172
-0.469174
0.533209
0.0951269
-0.610206
-0.405911
-0.839802
0.0968069
-0.312069
0.0744241
-0.570602
-0.724575
-0.871992
0.568827
-0.753281
0.372879
-0.560116
-0.768805
-0.81332
-0.201794
-0.299772
-0.202525
-0.00530903
-0.561869
0.855108
-0.748481
-0.367151
0.363737
-0.20316
-0.118669
0.661257
-0.140831
0.715328
0.396669
-0.162796
-0.423504
-0.0420539
0.174634
0.414283
0.121435
-0.503808
0.270799
0.495556
0.467971
-0.384972
-0.748956
0.56254
0.499359
0.686565
-0.440321
0.718501
-0.376509
-0.286325
-0.208459
0.156774
0.412587
-0.788588
-0.187222
-0.122502
-0.608601
0.342316
-0.0741422
0.0376233
-0.605286
0.415999
-0.372382
-0.778885
-0.403636
0.513516
-0.114427
-0.77306
-0.249031
-0.0618393
0.0189416
0.642149
-0.654752
-0.666212
-0.245761
-0.758916
0.0876832
0.501795
0.111842
-0.226144
0.0511441
0.115723
-0.62469
-0.576974
0.560158
0.495498
-0.862202
0.230984
0.660394
-0.119644
-0.627518
-0.00146676
-0.419467
-0.0447623
-0.478313
0.113443
0.400329
0.608005
-0.703153
-0.860891
-0.241613
-0.12819
-0.757578
-0.446935
-0.690144
-0.672439
0.357818
-0.507865
0.852555
0.159638
0.414394
0.242556
0.848902
-0.426112
0.0185346
-0.0247368
0.154711
0.772885
-0.193065
-0.36245
-0.154847
-0.6008
-0.649429
0.676877
0.217303
0.601259
-0.194083
-0.590615
0.330177
0.506813
-0.098641
-0.181359
-0.19485
-0.105665
0.0682482
0.521475
0.449958
-0.54707
-0.040211
-0.468957
0.139782
0.803343
0.542769
-0.609982
0.00083173
-0.382858
-0.712315
0.629212
-0.102354
-0.0835109
0.421257
0.823331
0.192239
-0.316702
0.855097
0.324047
0.35953
-0.405901
0.0538378
-0.631973
-0.2811
0.82396
-0.158542
-0.0846603
-0.771088
0.0285308
-0.195492
-0.0842435
-0.387809
-0.0665854
0.68778
-0.0585934
0.138123
0.00279758
0.134263
-0.446639
0.041429
-0.189472
0.103144
-0.763436
-0.81992
-0.00787175
0.845827
-0.00788643
-0.193507
0.28071
0.735572
-0.652554
-0.326175
-0.685997
0.857873
-0.717209
0.514355
0.656512
0.513409
0.205855
-0.101586
-0.81708
0.495155
0.648207
-0.363143
-0.841507
0.528324
-0.717432
-0.447296
-0.0965837
0.620393
0.10218
0.621656
0.481837
-0.244258
-0.849886
-0.767325
-0.429739
0.753468
-0.297218
0.761179
-0.602455
0.461009
-0.518915
0.8627
0.260631
-0.655041
-0.0811856
0.377668
0.284773
0.85178
0.747767
0.868936
-0.120866
-0.260552
-0.386231
0.319711
0.195211
-0.368303
0.129935
-0.621662
0.413806
-0.859608
0.582664
-0.604584
0.698237
-0.349802
0.351506
-0.309609
-0.0945948
-0.25994
0.536999
0.102993
-0.242303
-0.0188585
-0.201177
-0.651002
-0.798543
-0.511606
-0.685013
0.720691
-0.331986
-0.274955
-0.740311
0.16352
0.326209
0.318606
0.424457
0.275525
0.861624
-0.269055
-0.112116
0.297743
-0.162809
0.46666
-0.592881
0.731803
0.145992
-0.287586
0.014578
-0.228814
-0.401613
-0.670328
0.474295
0.78416
0.204047
0.320751
0.319026
-0.0331885
-0.0887014
0.361749
-0.11593
-0.0873343
0.672743
0.219254
-0.402238
-0.472424
0.453524
-0.382295
0.391477
0.658016
-0.579453
0.483144
0.515176
0.481193
-0.434451
-0.275287
0.388569
0.439417
-0.209471
0.601717
-0.867242
0.460333
0.626766
-0.0554233
-0.324996
-0.461872
-0.844164
0.600727
0.590289
-0.342311
-0.773708
-0.349238
-0.695853
-0.636083
-0.780101
-0.389903
-0.256256
0.0957554
0.0230661
-0.488695
-0.139257
-0.168726
-0.59165
0.262915
-0.742217
0.605878
-0.187284
0.302176
0.626512
-0.336374
-0.7874
-0.190388
0.699517
0.261378
-0.423719
0.478794
0.0793166
0.462072
0.280809
0.028594
-0.841768
0.392505
-0.837611
-0.521415
0.621172
0.579775
0.390731
-0.139026
-0.58141
0.411857
0.298293
-0.0606996
0.172774
0.0425614
-0.556918
0.780429
0.155495
0.6163
0.340135
-0.800248
-0.0346879
0.49415
-0.776798
-0.00736171
-0.420336
0.168707
-0.112669
0.458847
-0.582985
0.094119
0.788848
0.868924
-0.800035
-0.0727194
-0.218689
-0.138522
0.428286
0.794834
0.216656
-0.0222301
0.0220964
-0.113593
0.296161
-0.423967
-0.689666
-0.645067
0.0905878
0.694659
0.565102
0.618447
-0.0486825
0.129664
-0.262753
-0.31411
0.396365
-0.0106082
-0.488773
0.326222
0.103507
-0.564317
-0.21965
0.368319
0.0792825
-0.38651
0.344107
0.680459
-0.365606
-0.609509
-0.307741
-0.397249
0.227148
-0.520603
-0.00385749
0.393916
-0.0936684
-0.244336
0.463233
-0.640778
-0.815667
0.525496
0.398851
-0.18356
0.865657
-0.449976
0.758839
-0.774206
-0.0806203
-0.409324
-0.0343856
-0.234874
-0.570878
0.498443
-0.574335
0.826566
0.450346
-0.296798
0.617169
0.354514
-0.10333
-0.341978
-0.798411
0.355524
0.498615
-0.598641
0.77781
0.690578
-0.0618275
-0.863122
-0.121742
0.768217
0.504542
0.592709
-0.777522
0.50259
0.738348
-0.203324
0.40006
0.727664
-0.732483
0.558354
-0.377463
-0.869273
0.349636
0.491635
0.246753
0.265089
0.841354
0.00204639
0.0991764
0.696821
0.755102
-0.722097
-0.362062
-0.246122
-0.14942
0.774364
-0.796427
0.0853387
-0.553435
0.577426
0.508196
0.194519
0.00027743
0.184963
-0.355184
-0.640895
0.114451
0.388547
0.251035
0.00893607
-0.798091
0.481955
0.854768
0.0290224
0.743741
0.450067
-0.302116
-0.443627
-0.579263
-0.125951
0.580208
0.190414
-0.532458
0.754177
-0.552632
0.466522
-0.692324
-0.872104
0.11678
0.380479
0.580906
0.369849
0.109074
-0.452514
-0.790406
0.0795165
-0.156381
-0.715326
0.463254
0.716404
-0.211726
-0.571053
-0.792969
0.289846
0.228857
0.300021
-0.3483
0.673244
-0.0698158
-0.583884
-0.293085
0.121986
0.681573
0.201261
-0.449262
-0.245315
-0.670277
0.555091
-0.129669
0.0376011
0.25659
-0.0667684
-0.519269
-0.49052
-0.364808
-0.381955
0.654324
0.678614
0.162904
-0.272413
-0.222837
0.75225
0.0941372
0.373346
-0.265553
-0.419216
0.566968
-0.617551
-0.796292
-0.173572
-0.685865
0.453066
-0.0509496
0.816144
0.669612
-0.202456
-0.598575
0.694096
-0.205353
-0.191667
-0.692603
-0.815597
-0.479662
-0.552172
-0.0463605
-0.0871034
-0.0371353
0.161691
0.11974
0.312035
0.541251
0.586142
-0.844294
-0.322515
-0.19864
0.537087
-0.151136
-0.646292
0.430585
0.820305
-0.684718
-0.655209
-0.447198
0.529716
0.255475
-0.614741
0.719322
0.00660533
-0.0188605
0.752542
0.770263
0.0868162
-0.542304
-0.0674391
-0.860035
-0.0140661
0.156
0.326388
-0.474156
-0.826764
0.269309
0.760367
0.643206
0.772564
0.845574
0.563002
-0.69195
0.715315
-0.119286
-0.677697
0.494863
0.750357
0.0175027
0.219626
0.602432
-0.40689
-0.327499
0.410166
0.132985
0.50944
0.740543
0.559638
0.353031
-0.270474
-0.269565
-0.574074
-0.183561
-0.623604
0.329853
-0.286789
-0.62011
-0.503434
0.304869
-0.624678
0.810278
-0.835659
-0.675333
-0.820735
-0.712456
-0.0977113
-0.0187896
0.58251
-0.725405
-0.851473
-0.240311
0.159721
0.638401
-0.271539
0.288299
-0.60125
-0.254723
-0.455952
0.763155
-0.0799107
0.161733
0.606933
0.269519
0.840914
-0.389696
-0.615142
-0.227736
-0.568547
-0.0581844
-0.454425
0.324034
0.0959845
-0.402663
-0.260543
-0.178979
-0.0306948
-0.576428
-0.804406
0.444488
-0.197406
0.405934
-0.189187
-0.409287
-0.760779
-0.268177
0.675495
-0.490551
-0.15009
0.528264
-0.760544
-0.0362399
0.615464
0.462124
0.677059
0.789291
-0.476703
-0.599448
0.796694
-0.333327
0.326619
0.40065
-0.440314
0.198795
-0.780192
-0.395377
-0.492677
-0.828736
-0.163174
0.523262
-0.563795
0.685881
-0.416491
0.850045
0.515319
-0.237163
-0.765275
-0.221658
0.579251
-0.73691
0.551709
0.1071
0.842867
-0.00298177
0.382013
-0.423004
0.487906
-0.287183
-0.387191
0.23665
0.752618
-0.268498
0.256659
-0.605568
0.644036
-0.76273
-0.527989
0.791285
0.0311378
-0.136558
-0.376152
0.844623
0.117516
-0.542727
0.117245
0.183509
0.869482
0.835061
-0.577273
0.451025
0.443436
-0.773292
0.061264
0.794638
0.0729492
0.273309
-0.00435722
0.612098
0.866794
0.721727
-0.415814
-0.482648
0.608578
0.438601
0.137067
-0.343232
0.398516
0.0526662
-0.795054
-0.0936228
-0.702454
-0.431272
-0.500793
0.855262
-0.328304
-0.676104
-0.684258
-0.600213
0.798311
0.440281
-0.75772
-0.151221
0.156957
-0.592995
-0.456948
0.863551
0.777267
0.566249
-0.493302
0.113212
0.0786796
-0.441302
-0.511766
0.708221
-0.798866
0.113491
-0.0971169
0.24463
0.247567
0.56166
-0.435808
0.0972717
-0.851895
0.0608897
-0.579335
-0.74455
-0.397746
0.341401
-0.253641
-0.386413
0.549955
-0.138962
0.465146
-0.662315
0.165857
-0.49407
0.7826
-0.103554
-0.505622
-0.133541
-0.599001
-0.103826
0.789169
0.238423
-0.312629
-0.296122
-0.0237048
-0.0186216
-0.104048
-0.554008
0.0720465
-0.0762255
0.803875
0.0926839
0.857581
-0.240789
-0.474256
-0.417017
-0.626254
0.1495
-0.789795
0.599752
-0.207874
0.201604
-0.589968
-0.626946
-0.796294
0.0594917
-0.497052
0.510394
0.782233
-0.321653
0.134731
0.833198
-0.59759
0.619708
-0.113998
-0.761367
-0.790787
-0.660077
0.551917
-0.124973
-0.476947
0.798644
0.178775
-0.521717
0.507246
0.674971
0.477047
-0.598947
-0.29941
0.105138
0.00277414
-0.811193
0.724748
-0.219185
0.104826
-0.00773677
-0.104605
-0.153666
0.439961
-0.785525
0.67446
-0.519938
-0.677672
-0.0123005
0.613324
-0.3852
-0.752787
-0.293074
0.743379
-0.169435
0.7001
-0.669008
0.440543
-0.872062
0.400381
0.145782
-0.30259
0.102904
-0.570078
0.535678
0.861588
-0.634964
-0.126227
-0.805005
0.288878
-0.583245
-0.0566705
-0.543193
-0.515608
0.726934
0.152848
0.254577
-0.581727
-0.122645
-0.158362
-0.133732
0.128292
0.152523
-0.559176
-0.358991
0.190461
0.180073
0.241034
-0.695159
-0.261436
0.366323
-0.871579
0.856436
0.287421
0.432456
0.172775
0.262391
-0.0505129
-0.856851
0.543089
-0.487612
0.52504
0.449671
0.504427
-0.296325
0.739984
-0.208926
-0.0142272
0.803637
-0.588568
-0.621335
-0.554887
0.671538
-0.62715
0.140732
-0.198065
-0.690094
-0.615385
0.080765
0.50643
0.0406789
-0.168411
0.102003
0.140004
0.480421
-0.774376
0.526364
0.841118
0.822689
0.871954
-0.615876
-0.697697
0.55506
-0.861292
0.38419
-0.710845
0.755689
-0.0622868
0.136479
-0.384386
0.425235
-0.559643
0.0860774
-0.54557
0.646845
-0.146332
-0.468601
-0.674204
0.574199
-0.381664
0.651725
-0.435344
0.50377
0.78052
-0.403876
-0.658895
-0.0845491
0.0976086
-0.606718
0.62426
0.75053
-0.366409
0.208059
-0.820067
-0.0655944
-0.690773
-0.664315
-0.5792
0.533133
0.00574007
0.487382
-0.683146
-0.602688
-0.354386
0.636859
0.626975
0.421225
-0.755433
0.664827
0.754808
-0.739442
-0.137434
-0.737714
-0.371587
0.603437
-0.611994
0.0564106
-0.100422
-0.0919733
-0.156151
0.457555
-0.675404
-0.637211
0.389168
0.365766
-0.637187
-0.00590133
0.126342
0.301553
0.340653
0.144869
0.739781
0.359253
-0.0713183
-0.285247
-0.658785
-0.410616
0.612482
0.617697
0.39786
-0.615975
-0.401889
0.511368
0.0947618
0.087513
0.197325
0.276467
0.421195
-0.465638
-0.216099
0.781239
-0.441781
0.646435
-0.487573
0.263365
0.751136
-0.117593
0.34932
0.159614
0.416368
0.170364
0.824192
-0.817755
-0.268178
-0.0229039
0.846536
-0.458078
-0.574522
0.147304
-0.103868
0.719665
-0.232955
0.638147
0.0571955
-0.366411
0.499431
-0.157312
0.585313
-0.546303
0.494257
-0.584026
0.0446554
-0.51635
-0.786596
-0.459556
-0.162391
0.468728
-0.084432
-0.448275
-0.176192
0.573887
-0.518647
0.487149
-0.252215
-0.741078
-0.743086
0.289849
0.118155
-0.526676
-0.829429
0.205264
0.264002
0.141567
0.12206
-0.0226329
0.64689
0.386225
0.377117
0.862016
0.648909
0.524537
0.81802
0.599513
-0.425407
-0.389346
-0.483619
0.317985
-0.520848
0.186293
-0.100754
-0.439666
-0.303356
-0.242985
-0.172961
0.510177
0.792303
-0.397715
-0.736221
-0.721517
0.432702
-0.395783
0.828919
-0.698221
-0.233939
-0.0679627
0.482393
0.518198
0.746271
-0.506712
0.228311
0.32841
-0.465236
0.0698821
-0.809033
-0.231543
-0.781455
0.615146
-0.164852
-0.81268
-0.398122
0.0989198
-0.0392695
0.101212
0.152678
0.298578
-0.0457413
0.408804
0.406812
-0.246014
-0.690244
0.184783
-0.0223271
0.858619
-0.379225
-0.850324
-0.277335
0.382974
-0.531344
0.836576
-0.352789
-0.416577
0.518033
0.171498
-0.391187
-0.105255
-0.825998
-0.771556
0.015059
-0.532097
0.416005
0.248695
0.870587
0.585774
-0.551927
0.41136
-0.484025
-0.310229
0.580865
-0.546686
-0.346903
0.629527
-0.496961
0.233779
-0.103684
0.73638
-0.168745
0.42153
-0.789081
0.0168725
-0.404292
-0.664009
-0.181295
0.537899
-0.197673
-0.436749
-0.604254
0.148439
-0.0188291
0.715296
0.139785
0.334793
-0.783157
-0.263123
0.223962
0.284578
0.704821
0.775999
-0.32369
0.629229
0.631004
0.414905
-0.238979
-0.49434
0.810499
-0.277065
0.46571
0.845296
-0.00390914
0.426349
0.221006
0.170808
-0.269241
0.721182
0.582341
0.595511
0.45563
0.484529
0.811881
0.409844
-0.577001
0.0104353
-0.422391
0.66152
0.569883
0.407589
-0.582994
0.399035
0.65695
0.224709
-0.529519
0.193909
0.222045
0.673305
0.412869
-0.36724
-0.27817
0.367086
0.0673384
0.30272
-0.607565
-0.288163
-0.59619
0.238486
0.174242
0.176311
-0.128133
-0.75844
-0.8573
0.535864
0.129821
-0.120903
0.0479762
0.427884
0.872338
-0.548336
-0.771898
0.262822
0.298124
-0.477666
0.252874
-0.418788
-0.361906
0.357475
0.536065
-0.744006
-0.658835
-0.108354
0.132879
0.440977
-0.533642
0.390663
0.801683
-0.578322
0.62028
0.296172
-0.812085
-0.637228
-0.805987
0.804717
0.170218
0.173059
-0.108116
0.376391
0.166861
-0.585156
0.464709
-0.551042
-0.450127
-0.823266
0.315056
-0.418228
-0.668754
0.237715
-0.246676
-0.748471
0.670093
0.202575
0.501674
-0.562313
-0.340158
-0.0641303
0.69304
0.237527
-0.617391
-0.511555
0.251369
0.0554238
0.118413
0.502806
-0.649285
0.585083
-0.554386
-0.0439631
-0.10867
0.359171
0.445362
0.106077
-0.608527
-0.323554
-0.0138684
-0.782778
0.243675
0.397426
-0.609718
-0.166872
-0.716106
-0.267908
-0.36205
0.757371
0.353297
0.00607149
0.518116
-0.136202
-0.311217
0.7031
0.724184
-0.0739695
-0.0407247
0.528318
-0.5027
0.296706
0.70629
0.522505
-0.258243
-0.332596
0.19664
-0.324376
0.00214423
-0.70377
-0.858643
-0.253126
-0.835194
-0.272966
0.600195
0.581923
0.340365
-0.315344
-0.516119
-0.045421
-0.865439
0.700144
0.336534
0.632819
0.127314
-0.862458
-0.123257
-0.749144
0.280019
-0.478388
-0.570449
-0.269031
-0.194608
-0.214495
-0.328521
-0.304421
0.310787
-0.646238
0.0563892
-0.81611
0.614931
0.833099
0.224847
-0.784809
-0.715486
-0.728948
0.758077
-0.165965
-0.200024
-0.525729
0.344553
0.507006
-0.415554
-0.325526
-0.302744
-0.523404
-0.323658
-0.397646
0.124582
0.814174
0.515428
0.359947
-0.1423
-0.706138
-0.384899
0.762133
0.719474
0.00371807
0.650269
-0.303258
0.565179
-0.022898
0.168761
0.401914
-0.332016
0.380488
-0.80371
-0.770676
0.446766
0.0914659
0.592959
0.643987
-0.0685368
-0.851143
-0.7806
-0.661694
0.13799
0.278266
0.0651846
0.539145
-0.437666
0.198631
0.443395
0.477145
0.149379
0.449029
-0.269817
0.0548077
-0.578993
0.300532
0.114658
0.836845
-0.216063
0.0805002
0.306779
0.464916
-0.256591
-0.354705
0.375612
-0.563282
0.777232
-0.216722
-0.423847
0.211522
0.298758
-0.638827
-0.11285
-0.284167
-0.0506995
-0.438892
0.160539
0.424008
0.421402
0.413743
-0.853569
0.186894
0.248108
-0.196201
-0.762517
-0.449508
-0.566793
-0.712846
0.138995
-0.448784
0.806206
-0.831996
0.612819
-0.31215
-0.446838
-0.379708
-0.481708
-0.480154
-0.00536906
-0.266348
0.0714223
-0.276912
0.0404425
0.562689
-0.715078
0.284406
0.81851
-0.353467
-0.109216
0.544004
0.805216
-0.683527
0.416206
-0.253082
-0.183731
0.0497623
-0.848403
0.768121
-0.0686117
0.147012
-0.0319475
0.603259
-0.10692
-0.558584
0.0945286
0.395118
-0.68863
0.291251
0.159114
0.102146
-0.847203
0.599786
-0.091191
-0.171
-0.344643
0.309897
-0.618901
0.620364
0.725907
0.144244
-0.259507
-0.0962283
-0.0615749
0.598813
0.104
0.827483
-0.00406217
0.518973
-0.849989
0.659094
0.745506
0.787794
-0.782302
0.343112
-0.197753
0.828142
-0.804725
0.113083
-0.208838
-0.223974
0.621932
0.117331
-0.372856
-0.48561
-0.657422
0.630492
0.353132
0.566548
-0.111087
0.303166
0.411187
0.611315
0.590867
0.302328
0.563307
-0.6629
0.384098
0.124263
-0.496755
0.149746
0.844941
-0.064573
0.267043
-0.469884
-0.420303
-0.0830056
0.0129344
-0.151895
-0.041939
0.175456
-0.198452
-0.532297
0.182022
-0.749696
0.653697
0.87132
0.270579
0.163854
-0.645313
-0.234247
-0.544612
-0.528482
0.28154
-0.138556
0.858277
0.855682
0.405417
0.476084
0.36635
0.793051
0.68546
0.527657
-0.519709
0.140378
-0.369984
0.221304
-0.1209
0.713653
0.127607
-0.0261596
0.820958
-0.333321
-0.13138
0.161438
0.297164
0.838724
-0.0191341
-0.702111
-0.780376
0.375688
-0.458639
0.108423
0.790378
0.588872
-0.245871
0.137843
-0.571113
0.725573
0.689531
0.629337
-0.467428
-0.734784
-0.643019
0.0285835
0.0919467
-0.738463
-0.387053
0.804227
0.511893
-0.844091
0.326144
-0.50008
0.263747
-0.658421
-0.370583
-0.849076
-0.703634
0.0709605
0.0408402
0.192096
-0.535311
0.805257
-0.423236
0.573822
-0.511917
0.550748
-0.495148
-0.840442
0.0905413
-0.4747
0.713608
-0.434174
-0.493743
0.669167
0.555173
0.138975
0.481137
-0.444721
0.728036
0.542819
0.5349
0.710644
-0.809811
-0.00966759
0.530981
-0.871883
0.717063
0.554561
0.844416
0.811274
0.765761
-0.617405
-0.0902919
0.37706
0.234809
0.553755
0.653534
0.529948
0.778713
0.766951
0.27936
-0.245885
0.173793
-0.0991275
-0.379684
-0.152983
-0.558736
-0.267544
-0.0334019
0.122997
-0.300604
0.847537
-0.242142
0.820833
-0.189804
0.823974
-0.665554
-0.847223
0.318625
-0.121368
-0.438383
-0.406962
0.614663
-0.724914
-0.594819
0.0879099
-0.584299
-0.323501
-0.264712
0.691486
0.63487
0.699944
-0.128556
0.7799
0.489641
0.284209
0.628194
0.510349
-0.357917
0.66274
0.721754
-0.175593
-0.621808
0.0330037
-0.6872
-0.235671
0.115409
0.21494
-0.656165
-0.0368392
0.218899
0.434759
-0.625024
-0.861292
0.74085
-0.397607
-0.0809799
-0.853499
-0.768402
-0.805515
-0.62975
-0.157941
-0.398474
0.375909
-0.494804
-0.675675
0.778051
-0.0955487
0.0805263
0.653348
-0.752673
0.0175946
-0.626636
-0.172653
0.585928
-0.818383
-0.335102
-0.139733
0.153677
-0.796123
-0.787952
-0.462269
-0.466749
0.605448
-0.15878
-0.216199
-0.0586432
-0.640835
-0.364129
-0.513763
0.784845
0.866245
-0.46487
0.379331
-0.672558
0.154003
-0.659863
0.33672
0.146312
-0.56712
-0.591738
-0.601277
-0.556422
0.10853
0.0680064
0.406727
0.0353176
0.509736
0.288041
-0.198135
0.801383
-0.746882
-0.548266
0.229721
-0.0982737
-0.596401
-0.681894
0.254768
-0.476802
0.062938
-0.631905
0.85554
-0.249094
0.729474
-0.426086
-0.499501
-0.611159
0.0337622
0.410441
0.859352
0.119422
-0.283358
0.538822
0.0443598
0.509135
-0.748486
-0.246098
0.455418
0.858645
0.060345
-0.623553
-0.0974364
0.71775
0.485271
-0.695091
-0.321122
-0.00086317
0.583813
0.518462
0.0920339
-0.491703
-0.694344
-0.514386
0.173539
-0.202945
-0.325693
-0.198169
-0.301134
-0.0773215
-0.793853
0.483485
-0.692438
-0.215037
-0.193363
0.00291324
0.0350793
-0.259202
-0.803315
-0.2387
-0.486588
0.38133
0.785891
-0.470603
-0.463486
-0.124287
-0.404122
-0.00437874
0.823331
0.468394
0.739835
0.0727548
0.498844
0.0907201
-0.186305
0.500462
-0.551053
-0.11676
-0.384155
-0.224611
-0.47638
-0.295319
0.848057
0.0226449
0.677452
0.0111487
-0.54896
-0.239568
-0.266938
-0.344618
-0.509118
-0.562845
0.783436
-0.092545
-0.752639
-0.12845
-0.275167
0.357576
-0.143915
0.613536
-0.602704
-0.860679
-0.625254
0.685576
-0.54967
0.824105
-0.676626
0.519067
-0.383527
0.556949
0.471861
0.391151
0.550735
-0.463163
-0.314421
-0.400865
-0.507459
-0.345774
0.577246
0.150797
0.345707
-0.569876
0.19875
0.798331
0.439643
-0.842682
-0.36398
-0.743698
-0.128866
-0.603901
-0.321245
-0.441509
-0.28457
-0.0161774
0.246298
0.582019
-0.338496
-0.246525
-0.530625
-0.271246
0.100252
0.178164
-0.301129
-0.504623
0.370129
-0.640336
0.372052
-0.221986
-0.0479469
-0.1401
-0.817667
-0.619462
-0.337512
-0.726098
-0.698428
0.673865
0.391199
0.26884
-0.445843
0.456158
-0.645279
-0.456565
-0.426357
-0.790622
-0.536123
-0.776093
0.497964
0.656336
-0.635933
0.485755
-0.560114
-0.258671
0.743101
-0.779967
0.867235
-0.32862
0.152312
0.439996
0.23745
0.0420102
-0.222948
-0.638359
-0.0681347
0.618271
-0.848406
0.405724
0.0671316
-0.33171
-0.223545
0.203905
-0.768415
-0.0039204
-0.75951
0.340122
0.368528
-0.699155
-0.546478
0.806749
-0.858259
-0.44734
-0.612685
-0.220372
-0.345083
0.555491
-0.0779381
0.0131502
-0.54046
-0.397106
-0.3784
0.180532
-0.732295
-0.634954
0.0108982
-0.558773
0.705025
0.684889
-0.0197174
0.133969
-0.686974
-0.870719
-0.285032
-0.372993
-0.353846
0.0700587
0.86258
-0.00548561
-0.430069
0.347742
-0.470604
-0.732363
0.0937894
-0.190768
-0.837513
0.0124246
0.571054
-0.234315
-0.418105
0.17266
0.215834
-0.0477643
0.344442
-0.854474
-0.55807
0.423968
0.752448
-0.0303729
0.685956
0.592791
-0.308321
0.483114
-0.167727
-0.0387844
0.550253
0.529016
-0.284067
-0.653628
-0.400225
0.550631
-0.790885
0.631255
0.776948
0.0402731
-0.835206
-0.423726
0.653528
0.841195
0.358721
-0.51115
-0.282225
-0.69562
-0.771392
0.384165
-0.205853
0.387217
-0.595117
0.66054
-0.14211
0.240719
0.141943
-0.804943
0.674991
0.649873
-0.323251
-0.201207
0.104527
0.658479
0.694096
-0.268376
-0.458416
-0.528747
0.142843
0.257861
-0.671641
-0.798273
0.652867
0.113348
0.347397
-0.680861
0.562762
0.625916
0.384519
-0.0370914
0.20674
0.112927
-0.120139
0.395913
-0.00211797
0.488383
0.450045
-0.2354
0.618341
-0.758667
-0.464286
-0.202161
0.239847
0.0409275
-0.643747
0.351034
0.612138
-0.134246
0.745127
0.225067
-0.511167
-0.572551
0.502537
0.0818929
0.504179
0.0906015
0.779866
-0.384691
-0.0629493
-0.816062
-0.515892
0.432441
-0.349098
0.0803891
-0.341615
-0.0166299
0.0777566
0.780129
-0.789892
-0.722269
-0.338119
0.107065
0.368563
0.454601
0.680113
0.704064
0.556022
-0.392931
0.326925
0.738677
0.101647
-0.483828
0.58785
0.753469
0.283141
-0.260601
0.550957
0.0659157
-0.628838
0.682604
-0.278501
0.713611
-0.44472
0.00365822
0.85179
-0.438096
-0.808635
-0.181255
-0.396402
-0.815003
0.463332
-0.276922
0.806126
-0.775164
0.713826
0.193175
0.35494
0.483928
0.023078
-0.837941
-0.522705
-0.58433
0.0779172
-0.540714
-0.421028
-0.542169
-0.206123
0.256133
0.375879
-0.450609
-0.824848
0.756758
0.480684
-0.87198
0.306142
-0.182606
0.632201
-0.178009
-0.00498267
0.68615
0.862959
-0.167728
-0.381132
-0.376163
-0.349316
-0.774383
-0.677432
-0.709958
-0.818395
0.299609
0.508405
-0.0870912
-0.749546
-0.58663
0.268587
-0.337096
-0.131241
-0.240396
-0.660391
0.125964
-0.853517
0.0509862
-0.667708
0.107677
-0.592918
0.863619
0.345528
0.669127
0.744866
0.136485
-0.458714
0.237852
0.799129
-0.179383
-0.526861
0.568256
0.69854
0.361585
0.00083007
-0.591966
0.757869
0.192714
-0.0626447
-0.752881
-0.479549
-0.297241
0.687974
0.481036
-0.207927
-0.581536
0.261942
0.717841
0.326976
0.0328142
-0.419726
0.779484
-0.586989
-0.530714
0.149161
0.337773
-0.0628032
-0.389028
0.0602153
-0.107176
0.472172
-0.830355
0.477399
-0.393047
-0.0785944
0.190198
0.60275
0.68328
0.404132
-0.821305
-0.642375
-0.240738
-0.770261
0.761352
0.820944
-0.816111
0.38597
0.254714
0.042523
-0.807512
0.22911
0.330464
0.747635
0.276772
0.719786
-0.346857
0.338661
0.0117671
-0.391418
0.203859
-0.0318376
-0.785495
0.24587
0.752736
-0.376262
0.528327
-0.248884
0.776893
0.138548
0.127189
0.297574
0.553262
-0.299098
-0.676189
-0.537866
0.613194
0.0338261
-0.0790819
0.417722
0.0279083
-0.252827
0.208037
-0.406543
0.691666
0.029747
0.0684418
0.515428
-0.486342
0.695695
-0.647634
0.332488
0.702488
0.735229
-0.270439
0.609629
0.753364
-0.048868
0.757007
0.291761
-0.687363
-0.619758
-0.536077
0.351984
0.682778
0.647909
0.0891794
-0.388032
-0.409465
-0.604907
0.73697
0.771181
0.689717
0.392291
0.261388
-0.553652
-0.370525
-0.151361
-0.0327467
0.424222
0.0362146
0.683562
-0.656576
-0.169791
-0.266563
-0.526328
0.0323298
0.0216199
0.026191
0.871872
-0.66302
0.576022
0.335235
0.380397
0.135947
-0.0729758
-0.29977
0.459967
-0.672388
0.100297
0.356689
0.214915
0.738553
-0.208487
0.764633
-0.742724
0.66754
-0.841252
-0.488349
-0.756819
0.46847
0.694317
0.796166
-0.351195
0.457292
0.110498
-0.151888
0.135612
-0.210726
-0.596485
-0.356405
0.860168
-0.575219
-0.322416
0.637456
0.740667
0.195398
-0.595738
0.308688
-0.34795
-0.574727
0.0132073
0.526497
0.0252489
0.840901
0.220525
-0.642055
0.569504
-0.401176
-0.47406
-0.431867
-0.374653
-0.0212044
-0.414976
-0.281343
-0.394407
-0.0285977
0.429612
-0.791652
0.355121
0.33909
0.308067
-0.7278
0.0621131
0.228246
0.368653
0.785137
0.313532
0.123795
0.316938
0.180339
-0.0849938
0.367394
0.418423
-0.11544
0.228354
-0.850534
0.280756
0.580307
0.387478
0.238357
-0.508964
-0.800265
-0.751106
0.442099
0.480895
0.293436
-0.615275
-0.834846
-0.310744
0.818261
-0.0504855
0.311757
-0.168209
0.543728
-0.405494
0.276661
0.0135957
-0.123043
0.233844
0.776771
0.317371
-0.476847
0.81086
0.65085
0.80891
-0.282355
-0.330325
0.810831
0.300335
-0.350696
-0.242138
0.7959
0.770383
-0.733926
0.599548
-0.678147
-0.527055
-0.0651935
0.3583
-0.455272
0.475469
-0.772192
-0.108582
0.316799
0.111199
-0.104718
0.61841
0.0520689
0.312818
-0.284337
0.130518
-0.545034
0.145791
0.254412
-0.401483
-0.680097
0.84451
-0.585655
-0.49783
-0.552453
-0.401972
-0.429551
-0.809479
-0.553888
-0.319782
0.541043
-0.23888
0.243113
0.830295
0.437483
-0.387167
0.0343853
0.240883
0.660824
-0.506403
-0.606196
0.336664
0.724349
-0.322388
0.695611
0.724575
-0.398097
0.28572
-0.319633
0.136522
0.812945
0.317982
0.78252
-0.744134
0.260364
-0.317494
0.768249
-0.144764
-0.323949
-0.211738
-0.300178
0.78568
-0.272301
0.608703
0.186521
-0.419052
-0.516077
-0.830112
-0.670183
0.0722715
-0.557042
0.486534
-0.785567
-0.486604
-0.743229
-0.745401
0.514885
-0.729645
0.0641164
-0.718259
0.675118
-0.818319
-0.433431
-0.507326
-0.48257
-0.707201
-0.824491
0.298277
0.642392
-0.281211
-0.735464
-0.741044
0.162694
-0.63992
0.870469
0.375365
0.662179
-0.642017
0.696921
0.0104748
-0.85267
-0.0329991
-0.291139
-0.149118
-0.103245
0.834514
-0.457745
-0.378502
0.489608
-0.499944
0.450784
0.518668
0.467336
0.350547
0.386388
0.72592
-0.265884
0.545443
-0.329936
-0.325079
0.858975
0.334645
-0.764062
-0.0362603
0.155137
0.818657
0.0452291
0.441211
-0.78441
0.574565
-0.0426089
-0.777333
-0.265534
-0.494941
0.691598
0.537204
0.272758
0.307256
0.21918
0.288734
-0.78669
-0.0538126
0.737918
-0.624115
0.732914
0.407748
-0.870831
-0.822871
-0.359429
-0.23488
-0.0586352
-0.359388
-0.563856
-0.178312
-0.747048
-0.319136
-0.0712854
0.553332
0.633826
-0.231615
0.110094
-0.269648
0.488147
0.755496
-0.0336508
-0.72238
0.0790159
0.752309
-0.306842
0.653695
-0.592827
-0.329318
0.788799
-0.734987
-0.51948
-0.228638
-0.364992
0.228636
0.522834
0.504059
0.28201
0.26686
-0.219923
0.627767
0.0323213
-0.269236
-0.415257
0.282822
0.119134
0.674397
-0.275162
-0.144759
-0.834365
-0.43434
-0.239102
-0.54589
0.437228
0.845601
-0.324881
0.0732842
-0.32897
-0.557604
0.0629355
-0.649113
0.201339
0.0751137
-0.511976
-0.865746
0.686204
-0.798354
0.624149
-0.343407
-0.592266
0.69235
-0.179025
0.622391
0.486062
0.448279
0.289287
-0.866815
-0.579796
-0.652862
-0.0635222
0.72999
-0.0025369
0.202757
-0.658557
-0.115435
-0.691038
0.274129
-0.401456
-0.559196
0.103078
0.0747281
0.722239
-0.412898
0.686163
-0.303225
-0.44056
0.382901
0.708567
0.609125
0.765747
0.211818
-0.0496345
-0.693142
0.331192
-0.812347
-0.649753
-0.556046
0.328984
0.0188999
0.363877
0.793206
0.399012
-0.451264
0.367946
0.811567
0.0869928
0.345252
0.0534419
0.826746
-0.575943
-0.760036
-0.165225
-0.145754
0.691231
-0.745485
-0.540349
-0.325984
-0.803311
-0.0375797
0.29466
0.007469
-0.432234
0.84591
0.226317
0.494298
0.233871
-0.267626
-0.365011
-0.612311
0.0218983
0.534807
0.773825
0.827955
0.277542
0.335274
-0.720036
0.0651627
0.506873
0.80619
-0.739304
-0.789419
-0.106549
0.660365
-0.321826
-0.340004
0.831731
0.692099
0.0486127
0.485354
-0.863962
-0.767888
0.724234
-0.205615
-0.280523
-0.509722
0.595523
-0.424678
0.837994
0.60555
0.119621
-0.837254
0.577929
0.796368
0.168755
-0.557703
-0.712601
0.0846564
0.588616
0.11535
0.22583
-0.450054
-0.132017
-0.218357
0.37927
0.679671
-0.114098
-0.117465
-0.269756
-0.0163281
0.761131
-0.758484
-0.115525
-0.214496
-0.783411
0.363521
0.319696
-0.646447
-0.721147
0.448827
0.735585
0.749634
0.851451
-0.805733
-0.493445
-0.0826291
0.679716
-0.0271658
0.709887
-0.227242
-0.45949
-0.102946
0.20344
0.272432
-0.694298
-0.520761
-0.421739
0.0748037
-0.709128
0.478263
0.528681
-0.419304
-0.488778
-0.361754
-0.311841
-0.401589
-0.377313
0.823681
0.35245
-0.41
-0.749779
0.752349
0.221257
0.384998
0.0338565
-0.814342
0.635876
0.512179
-0.541701
-0.514638
-0.855078
0.0413639
-0.0618983
0.862066
-0.328201
-0.259275
0.367005
0.263471
0.592223
-0.552349
0.13218
-0.621736
0.203698
0.478524
0.451869
0.116455
0.795141
0.268383
-0.0854484
0.0284749
-0.833084
-0.554757
0.067232
0.57492
-0.365229
0.369929
-0.276422
0.509964
0.604783
0.196824
0.732402
-0.656362
0.498022
0.215223
0.0626673
-0.688284
-0.0480256
-0.80342
0.451027
-0.154822
-0.717889
0.844573
-0.0114258
0.808649
-0.687059
0.781648
0.79488
-0.804415
-0.612888
0.334713
-0.483711
-0.103961
0.628343
0.16891
0.736937
0.158719
-0.422544
-0.0257258
0.509598
-0.338972
0.487258
0.669027
0.13921
-0.211041
0.0698523
0.175984
0.457382
-0.15129
0.0497208
0.674611
-0.359531
0.79188
-0.601224
0.194946
0.470253
-0.239468
-0.162607
-0.7555
-0.631921
0.745384
0.475664
0.521835
-0.442569
0.866877
-0.0710304
-0.684564
0.293005
0.238439
-0.0531476
0.591673
-0.4195
0.589086
-0.241656
0.0953007
0.332819
0.547104
-0.506441
-0.505969
-0.696394
-0.0512601
-0.667162
-0.745796
-0.0310347
0.0807124
0.572954
-0.175203
0.594553
0.0973513
-0.619909
0.694847
0.353513
0.375261
-0.532323
-0.0147311
-0.741462
0.0747694
0.541297
-0.299518
-0.36767
-0.0231388
0.397402
0.123754
-0.343562
0.683687
0.808079
0.618446
0.84526
-0.34896
0.510342
0.797635
0.391101
-0.625586
0.436403
0.847069
0.867784
0.856945
0.325718
-0.326245
-0.825227
0.837874
0.123267
-0.475882
0.769692
-0.835556
0.466738
0.512571
-0.68666
0.229787
0.128692
-0.685253
0.110456
0.257305
-0.353045
0.48542
-0.311608
-0.68865
-0.497048
0.39864
0.441705
-0.104165
-0.191048
0.83158
-0.599861
0.107546
0.833116
0.316655
0.801819
-0.145328
-0.107098
-0.783715
0.739856
-0.802605
0.364996
0.686346
0.341879
-0.664958
-0.148701
-0.215493
-0.547594
0.33058
-0.790216
-0.741161
0.769672
0.401564
0.133619
0.161864
0.169739
0.624828
0.315945
0.639177
0.216351
0.341834
0.163327
-0.197388
0.599406
-0.541157
0.0853939
0.814493
-0.186655
-0.285092
0.866723
-0.48916
-0.23415
0.29815
0.151091
-0.239503
0.568625
-0.0495648
-0.102708
0.306663
-0.46008
-0.437412
-0.646947
0.269264
0.103209
0.561452
-0.266076
0.26016
-0.495615
0.551981
0.243457
0.706877
-0.815884
0.761335
0.589018
0.288299
0.658563
-0.695887
0.254906
-0.47236
-0.293623
0.656655
0.108676
-0.390999
-0.452322
-0.161029
0.574349
0.0941613
0.654342
-0.529733
-0.0313052
-0.796423
-0.411316
-0.431306
0.105987
0.499537
-0.608042
0.0438416
0.44192
-0.326129
-0.17669
-0.391397
0.755143
0.195927
0.622826
-0.0346522
0.00015154
0.288825
-0.310393
-0.0322203
-0.618989
0.135839
0.689391
-0.358211
-0.0977207
0.292676
-0.855941
0.530354
0.521382
-0.496082
-0.603501
0.812941
-0.49292
0.311811
-0.24203
-0.153054
-0.681724
-0.409298
-0.167605
0.0492137
0.139209
-0.238911
0.00724607
0.691485
-0.310908
0.0331982
-0.587517
0.497976
-0.697537
-0.191371
-0.779149
0.849781
0.417431
-0.710115
-0.681644
0.395101
0.576711
0.327825
-0.482952
-0.137764
-0.818814
-0.345389
-0.00346543
0.696452
0.23023
-0.257679
0.377102
-0.0902473
0.239865
0.7486
0.644945
0.857868
-0.132088
-0.170934
0.636318
0.133173
-0.301752
-0.053421
0.466834
-0.61946
-0.343681
-0.693277
-0.0125731
-0.842551
0.576279
-0.0984551
0.577963
-0.863302
-0.412382
0.131716
0.296882
0.694809
0.671634
-0.0939985
0.624015
-0.322506
0.627789
-0.00415476
-0.0854806
0.196492
-0.261617
-0.471314
0.312191
-0.244054
-0.0763779
-0.548938
0.0193298
0.365805
0.507357
-0.862985
-0.0308568
-0.827708
-0.584043
0.550028
-0.0960663
-0.525702
-0.387147
-0.390342
-0.0449188
-0.208162
-0.833598
0.559378
-0.628996
-0.330243
0.1062
0.0906897
0.719813
0.00836297
-0.79012
-0.216815
0.836558
0.24516
-0.059091
-0.476972
-0.161054
-0.600297
0.845991
0.289018
-0.0405835
-0.3064
-0.784558
0.728848
-0.678524
-0.0596817
-0.0521977
-0.708716
-0.834916
0.378207
-0.112338
0.38399
0.024198
-0.379191
0.474647
-0.362501
-0.598386
-0.712281
0.347993
-0.778911
0.0347249
-0.158347
-0.367713
0.151759
-0.0165266
-0.827515
0.780891
0.589272
-0.609589
-0.757525
0.80464
-0.179299
-0.503443
0.0223458
-0.377031
-0.0238174
-0.156552
-0.728338
0.832613
-0.664944
0.61302
-0.29244
-0.848649
0.577342
0.0622022
0.744426
-0.189678
-0.545902
-0.341974
-0.284562
-0.871251
-0.0554995
-0.405531
0.292167
-0.295006
-0.0561073
0.337335
-0.47787
0.674852
0.780612
0.514308
0.106143
0.653185
0.608984
0.868932
0.688384
0.203364
0.859771
0.357497
0.774877
-0.286905
-0.0335727
-0.61183
-0.859601
-0.781766
0.677214
-0.334931
0.538715
0.127998
0.504312
-0.485573
-0.238119
-0.113281
-0.581761
0.684887
0.198654
0.0130106
0.454775
-0.677056
0.329601
0.126847
0.329004
0.125653
0.593487
-0.246328
0.255307
0.650704
0.775425
0.108266
0.206064
0.320259
-0.0368131
-0.155276
-0.770753
-0.687733
-0.595937
0.820186
-0.505498
-0.593576
-0.730586
-0.545334
-0.734034
-0.644603
-0.840855
0.472725
0.3202
0.712458
0.0537839
0.378223
0.714089
0.790261
-0.451296
0.623678
0.207062
0.518723
-0.76791
0.433497
0.741009
-0.605575
0.266312
-0.515092
-0.0394145
-0.659526
-0.213789
-0.803042
0.0800828
-0.194015
-0.667029
-0.429752
0.824424
-0.608687
-0.636483
-0.528986
-0.798776
0.233305
-0.298362
0.778151
-0.65323
0.00427519
0.556311
-0.81814
-0.156392
-0.00326897
-0.344599
0.331746
-0.435272
-0.711247
0.576084
-0.671748
0.302835
-0.250431
-0.703188
-0.178543
-0.702645
0.0498419
-0.412822
0.0384929
-0.608084
0.290333
0.709926
-0.414154
0.367665
0.413729
-0.493206
0.143366
0.865377
-0.384341
0.161929
0.537674
0.493635
0.544358
-0.38659
-0.36474
-0.422943
0.295649
-0.652198
0.73562
-0.550544
0.222433
-0.870862
-0.0635867
0.40384
-0.504969
0.189113
-0.445102
0.0518372
-0.755499
-0.849861
0.340619
-0.485559
0.572681
-0.530593
0.755644
0.854065
-0.0525762
-0.674653
-0.0152085
-0.146683
-0.246274
0.254952
-0.0921124
0.750715
0.194836
0.65936
-0.325826
0.707539
-0.665568
-0.813003
-0.801982
-0.607933
0.153389
-0.0571527
0.15078
-0.635418
-0.386321
0.581135
-0.0723052
-0.0424092
0.535176
-0.82865
0.12477
0.115862
-0.812702
-0.166642
-0.212227
0.312649
-0.327324
-0.716836
0.569901
0.00021065
0.667051
0.662433
-0.365423
-0.10288
0.654471
0.754707
0.433586
-0.707572
0.141378
-0.709222
0.646778
0.770567
0.109647
-0.539198
0.532023
0.458635
-0.607318
-0.206564
0.379214
-0.552588
-0.649087
0.173039
0.116639
-0.0009194
-0.331873
0.721604
-0.260316
-0.21819
-0.722733
-0.256698
-0.335679
0.683
-0.635364
0.113608
0.27221
-0.836032
0.844117
-0.777255
-0.328975
0.183218
-0.193839
-0.69156
-0.0593671
0.207404
-0.00212994
-0.746615
0.0698913
-0.738454
0.731895
0.349132
0.495383
0.732856
0.43057
-0.822541
0.203244
-0.824992
-0.240369
-0.330293
0.253079
-0.383391
0.3752
0.796814
-0.46263
0.523491
0.170571
0.0377856
-0.0418396
0.50692
-0.622517
0.180552
0.423233
-0.467439
-0.190569
0.00826879
0.628611
0.819628
0.13173
0.798397
-0.221099
-0.587382
0.4453
0.36501
0.166228
0.6664
-0.520047
0.25569
0.00533471
0.0704054
0.190891
0.568009
0.771844
-0.627112
-0.532641
-0.803525
0.279541
-0.623615
0.1739
-0.664704
0.851249
0.311349
-0.204405
0.810186
-0.569296
0.0219392
-0.0371747
-0.625537
-0.795282
0.551377
-0.420467
-0.778961
-0.396838
0.441615
0.8307
-0.0437961
-0.674334
0.47092
-0.444042
-0.00260987
0.720759
0.17276
0.0562353
-0.84776
0.0366396
-0.574398
0.14951
0.744979
0.00493875
-0.183539
-0.269737
0.0651366
0.860491
-0.658001
0.651298
-0.804617
-0.361434
0.609107
0.563999
-0.410049
-0.227208
-0.603423
-0.187542
0.0221951
-0.843726
-6.729e-05
0.422844
-0.605239
-0.178327
-0.791304
-0.841058
-0.40563
-0.507395
0.0767738
-0.730158
-0.0513864
0.523169
-0.174565
-0.587692
-0.398726
-0.797739
-0.780668
0.360695
-0.181847
0.291556
0.401311
0.403887
0.214126
0.44671
-0.0661373
-0.11229
0.658971
-0.0795363
-0.557273
-0.0427626
0.404903
0.826518
0.0282001
-0.252282
0.277862
-0.239322
0.0110908
0.607168
0.363033
0.770879
-0.654916
0.44348
0.680215
-0.495691
0.763719
0.25288
0.619549
-0.381137
-0.41377
-0.344797
-0.422451
-0.571578
-0.496244
-0.0263862
-0.71167
-0.74407
0.682695
0.299436
0.869707
0.304324
-0.410656
-0.151727
-0.59178
0.463088
0.567225
-0.597632
0.102666
-0.626552
-0.739135
-0.523925
0.0260508
-0.247871
-0.580358
-0.0595107
-0.704163
-0.50006
0.139774
0.483483
-0.665128
-0.0008611
-0.221608
-0.853737
-0.0600921
0.277351
0.871277
-0.313203
-0.133722
-0.540125
0.55769
0.31089
0.795436
0.61191
-0.192786
0.259864
0.125647
-0.710733
-0.243782
0.801383
0.261636
0.56297
-0.810297
0.121802
-0.271841
0.730727
0.749248
-0.831127
0.548801
-0.355052
0.368913
-0.612846
0.304353
0.548575
0.071632
0.486433
0.242022
0.0434085
-0.335655
0.167197
-0.120901
-0.614973
0.113507
0.181973
-0.850307
-0.0665726
0.673377
0.540215
-0.670051
0.0631009
-0.0177415
-0.0130521
0.710758
0.142399
-0.117315
0.857779
-0.130738
-0.612416
-0.056617
0.266771
0.317538
0.819179
0.592712
-0.659454
0.0541665
-0.476124
0.0258149
-0.829424
0.768357
-0.152255
0.403619
-0.381894
0.119346
-0.30931
0.249512
-0.0508963
0.498007
-0.467018
0.409443
0.0641599
0.141265
-0.103073
-0.430663
-0.26264
0.331276
0.70545
0.197354
-0.834013
-0.0409193
0.51297
0.503731
-0.332231
0.180703
0.353632
0.60479
0.0935091
0.275535
0.107058
0.797393
-0.557182
-0.483208
-0.477887
0.59468
-0.0754038
-0.434504
-0.644712
0.0697711
0.312563
0.118155
0.675203
-0.481179
-0.742061
-0.80773
-0.783804
-0.382878
-0.519113
-0.857726
0.18164
0.800883
-0.684679
0.591246
0.772624
0.837138
0.337215
-0.768953
0.318195
-0.84495
-0.621533
-0.45683
-0.638606
0.0244574
-0.432066
0.816711
0.00137635
-0.548895
0.0952172
-0.419041
-0.275087
-0.854265
-0.622821
0.223843
-0.0796088
0.638652
0.209671
-0.433279
0.102325
-0.179115
0.355736
0.739321
-0.465193
-0.795686
-0.200516
0.51926
0.456498
0.375452
-0.488929
0.190175
-0.684318
-0.211077
0.14105
-0.318762
0.313298
0.0747059
0.230247
0.126281
0.478543
0.229137
0.656036
0.0834008
0.255103
-0.451075
0.596065
-0.0157955
0.454243
-0.226019
0.483726
-0.709456
0.470431
0.528619
-0.307332
-0.650381
-0.784724
-0.72791
-0.791888
0.0717645
0.351943
-0.817472
0.663004
0.111332
0.539665
-0.642486
0.537364
-0.829084
-0.719531
0.262951
0.629058
-0.0433325
-0.783306
-0.409119
0.179043
0.116422
-0.724895
-0.203949
-0.216044
0.364546
-0.456844
0.579483
-0.855876
0.36933
0.135778
-0.725993
-0.568276
-0.405913
-0.145068
-0.75607
0.0408587
0.852476
-0.461857
0.505589
-0.527682
-0.689779
0.225953
0.5211
-0.607165
-0.073931
-0.751665
0.625885
-0.160319
-0.514194
-0.550617
0.180061
-0.30752
0.771143
0.578353
-0.598314
0.600036
-0.724329
-0.385323
-0.0865477
0.115168
-0.691244
0.582208
-0.272137
0.687803
-0.26769
0.590665
-0.38827
0.255924
-0.726635
-0.229468
0.182344
0.804462
-0.172651
0.511108
-0.815059
-0.335915
-0.260661
0.0852605
0.211033
-0.289344
0.0102239
0.773625
-0.412082
-0.583701
-0.425283
0.198228
0.0325884
0.45761
-0.831163
0.130936
-0.203225
-0.412651
0.315622
-0.760355
0.569863
0.74318
-0.11721
-0.351588
-0.859706
-0.486833
-0.504587
0.426223
-0.872585
0.405352
0.672116
-0.706284
-0.593671
-0.510063
0.252867
-0.32158
-0.601158
-0.58375
0.82585
0.490808
0.842249
-0.166776
0.783914
0.164283
-0.504807
0.417985
0.32906
-0.473712
0.0338876
-0.139108
0.138555
0.568117
0.250022
0.777189
0.39608
-0.359568
0.20769
-0.103396
-0.529696
0.296292
0.0546869
-0.0238631
0.542933
-0.262837
0.793439
-0.314306
-0.133291
-0.061344
0.625374
0.866192
0.384848
-0.383313
0.351505
-0.755971
-0.491964
0.719584
0.220964
0.407088
0.464087
0.202966
-0.705773
0.622166
-0.770642
0.572542
0.530984
-0.0253528
-0.843094
0.169854
0.372185
-0.262673
0.756098
-0.00493229
-0.0283865
-0.855446
-0.00112612
-0.252039
-0.021484
-0.0627612
-0.349
0.367249
-0.4846
0.239399
0.0232148
0.424918
-0.227511
0.866558
-0.827683
-0.42502
-0.860335
-0.106226
0.329103
-0.481173
0.153241
0.773802
0.0682241
-0.801719
0.0850464
-0.11745
0.00763269
0.283921
-0.605331
0.569052
-0.322621
0.0377588
0.625952
0.388298
0.497155
0.320068
-0.174123
-0.811858
-0.593631
0.272928
0.231282
0.354515
-0.437181
0.840676
-0.486597
0.504077
-0.44749
-0.516166
0.00531028
0.814804
0.181856
-0.277338
-0.511638
-0.243581
0.250695
-0.504784
-0.752315
0.460402
0.676262
-0.168819
-0.382223
0.486776
0.416049
0.126765
-0.297094
0.0882259
0.467541
0.231968
0.796745
0.346329
-0.358416
-0.392859
0.503212
0.661585
-0.446244
0.47579
-0.0548562
-0.763714
-0.804275
-0.659182
-0.59095
0.188149
0.184793
0.677158
-0.122863
0.59967
0.839499
0.44145
-0.782927
-0.356443
0.0745404
0.477462
-0.694311
-0.182478
0.527973
-0.435187
0.842887
-0.468742
-0.671243
-0.552993
0.727511
0.538699
-0.313278
0.542955
0.0208317
-0.0942584
0.2559
-0.629475
-0.102252
-0.453828
0.791495
-0.516118
-0.0398263
0.0943332
-0.239803
0.359412
-0.52836
0.672776
-0.690462
0.759429
0.270354
0.500505
0.205491
-0.794681
-0.783249
0.172017
-0.293513
0.397765
-0.251441
-0.0237029
-0.438195
-0.721508
-0.532519
-0.653044
0.564413
0.81708
-0.4703
-0.781384
-0.470376
-0.0331696
-0.302416
-0.141558
-0.834691
-0.68929
-0.0866894
-0.00724703
-0.145458
-0.0571974
-0.645805
-0.63087
0.141411
0.820007
0.71961
0.288779
0.572349
0.546408
-0.25595
-0.0143568
0.340456
-0.380251
0.0238401
-0.329988
-0.737858
-0.112405
0.747917
-0.513623
-0.318849
-0.0722584
-0.559339
0.0273841
0.745056
-0.769488
0.376158
-0.723335
0.408944
-0.764628
0.646778
0.169825
0.104765
-0.189511
-0.127852
-0.0553954
0.800715
0.441931
0.835874
0.0905415
-0.490205
-0.763154
0.815251
0.60854
0.868026
0.449012
-0.0421832
-0.122078
-0.254234
-0.192261
0.712559
0.867289
0.23213
0.684871
0.395113
0.30534
-0.812914
0.75574
-0.00407536
0.725966
-0.687874
0.0728851
0.74447
-0.482822
0.227612
0.837362
-0.126817
0.808793
0.439449
0.796801
-0.0541293
0.228372
0.0862354
-0.394191
0.741876
-0.799958
0.602224
0.794336
-0.554565
0.150375
0.581302
-0.293721
0.578686
-0.702783
0.0511087
-0.123751
0.0693692
-0.725149
-0.794461
-0.587995
0.423781
-0.569305
-0.330954
0.216445
0.293916
0.0464447
0.347706
-0.640203
-0.0946633
-0.682217
-0.104878
0.353896
-0.636294
0.0706828
-0.627797
-0.837022
-0.459397
0.488787
-0.339101
-0.143723
0.333443
0.591532
0.219523
-0.211059
0.0501054
-0.244444
0.700554
0.129626
0.326634
0.119598
0.747642
-0.496748
-0.0398455
0.103019
-0.8215
0.407352
0.494878
0.269941
-0.563763
-0.07055
-0.730217
-0.637544
-0.487493
-0.663641
0.422532
-0.00160504
0.423197
-0.387614
0.709966
0.0104383
-0.274878
0.795625
-0.278612
-0.445939
0.249439
0.853314
0.854938
-0.737
0.82656
-0.58125
0.0831311
0.217277
0.00955239
-0.469703
-0.822199
-0.56985
-0.670711
0.6429
0.762838
-0.365309
0.603732
0.801233
-0.64748
0.47417
-0.2215
-0.273442
0.690558
0.618674
-0.152078
0.803981
-2.118e-05
0.134932
-0.587837
0.619508
-0.580398
0.838879
-0.366972
0.23253
-0.13906
-0.03438
-0.159384
-0.325133
-0.508737
0.655058
0.846919
-0.383031
0.710181
0.684285
-0.835979
-0.557346
0.0613415
-0.221796
0.579211
-0.222261
0.534364
0.312424
0.841191
0.226357
0.732628
0.424543
0.397774
-0.62471
-0.706875
-0.191233
0.662021
0.309339
-0.41173
-0.489932
0.215886
0.775591
0.2952
0.33485
0.0951276
-0.267451
0.0605394
0.681766
-0.548636
0.245595
0.0943337
0.460652
-0.0539499
-0.481452
-0.600468
-0.226038
-0.715414
-0.757559
0.252724
-0.670819
-0.506167
-0.0221301
0.188476
-0.73377
0.361747
0.0690475
-0.53246
0.183562
0.00470271
0.644323
-0.342511
0.52531
-0.072856
-0.00498961
0.528801
-0.1939
0.764429
-0.223551
-0.317181
0.821283
0.452098
0.806526
-0.429543
-0.217481
0.788607
-0.871388
0.287391
0.311693
-0.255806
-0.259022
-0.386287
-0.24024
-0.270671
-0.377364
0.688578
-0.807182
-0.508164
0.794957
0.732993
0.0185065
-0.570895
-0.201941
0.176047
-0.548524
0.450243
-0.603059
-0.689275
0.573845
-0.567577
-0.690161
-0.254328
-0.210937
0.198951
0.564226
0.0497531
-0.00665146
0.0997905
-0.501375
0.668801
0.860364
0.191029
-0.658828
0.607202
-0.808758
0.300105
-0.679203
-0.735248
0.594056
0.537775
-0.718424
0.771768
-0.0370527
0.317792
0.118478
0.543574
0.411629
-0.631274
0.764552
-0.387376
0.799453
-0.289687
-0.214968
-0.664429
-0.652989
-0.58582
0.131085
0.281338
-0.658442
-0.556955
0.116042
-0.699318
-0.807326
0.666828
-0.249478
0.756242
0.159053
0.263995
-0.661982
0.331914
-0.644501
-0.865871
0.460964
0.181574
0.669069
-0.452129
-0.545352
0.0842642
-0.479922
-0.685439
-0.43315
0.464816
-0.829042
-0.781508
-0.264588
0.324976
-0.196471
0.71661
0.372867
0.113773
-0.605746
0.331282
-0.647962
0.266113
0.868861
0.415917
-0.13425
0.253291
-0.0980735
-0.444685
0.752252
0.308748
-0.139816
-0.183827
-0.271705
-0.177256
0.0331907
0.063199
-0.0462926
-0.0978615
0.339912
0.365816
0.0945848
-0.238567
-0.413629
-0.608276
0.826024
0.342094
-0.205767
-0.208926
-0.751764
0.0806129
-0.557041
-0.803648
-0.642114
-0.814219
-0.0618315
-0.512986
-0.0887621
-0.680808
0.552642
0.745754
0.413909
-0.354146
-0.465972
-0.483873
-0.0258767
0.611697
0.267285
0.642116
-0.421863
-0.65514
-0.606054
-0.0540182
0.77272
-0.716956
0.502903
-0.0944264
0.120615
0.774956
-0.3647
0.729282
-0.764712
-0.0487542
-0.743117
0.106511
0.132119
-0.845686
0.513767
-0.256002
-0.488075
0.0176558
-0.865878
0.260179
0.588721
0.634283
-0.385347
0.564845
0.797993
0.737897
0.612685
-0.0808704
0.199144
-0.751556
0.28943
0.852103
0.0078077
-0.611897
0.826139
0.00339951
-0.0557514
0.216654
0.327102
-0.429149
0.320218
0.482852
0.374972
-0.435527
-0.352608
0.666243
0.796617
-0.787131
-0.816609
-0.566145
-0.256149
-0.331751
0.579378
0.731308
-0.307541
-0.489571
0.793937
0.850535
0.282049
0.702825
-0.326581
0.258378
0.372668
-0.253392
-0.325657
0.313424
-0.615142
-0.0881411
0.279591
-0.516912
0.468682
0.347261
-0.699804
-0.161705
-0.34989
0.603676
-0.157029
0.516282
-0.35329
-0.762133
-0.00507979
-0.688527
-0.222335
-0.720668
0.0702049
-0.232575
-0.491201
-0.675538
0.190859
0.0122055
-0.311748
-0.0884997
-0.605072
0.727622
-0.00794136
0.853402
0.550785
0.80714
-0.853432
0.14623
0.197344
0.326759
0.785701
0.81767
-0.509472
-0.557618
0.512251
0.816041
-0.562692
-0.682979
0.195428
0.822794
0.0102177
-0.264317
0.858271
-0.0542447
-0.55627
-0.231528
0.703229
0.427035
0.687867
-0.437254
-0.0334556
0.13704
0.788613
0.643333
0.250474
-0.473285
-0.310194
-0.120106
-0.842708
-0.263934
0.251213
-0.618928
-0.046281
-0.181049
-0.0485429
-0.681123
0.154927
0.711429
0.206563
0.0659632
0.727287
0.673635
-0.783293
0.790483
0.0727678
-0.684705
-0.497911
-0.395549
-0.36121
-0.847596
-0.248136
-0.71041
-0.482164
-0.835749
0.795833
0.636179
0.667729
0.0778806
0.628766
-0.822288
0.140853
-0.455481
-0.171869
0.233459
0.615963
0.763631
0.0959109
0.0777053
-0.648614
0.237729
-0.703656
0.397383
0.58092
0.50942
-0.562736
-0.855252
-0.28421
0.342391
-0.50426
0.805096
-0.550874
-0.690364
-0.485265
0.320182
-0.020717
-0.658769
-0.799809
0.606975
-0.43601
0.275085
-0.81717
-0.55151
0.522002
-0.683166
-0.158133
0.523649
0.230683
-0.781783
0.851925
-0.512123
-0.382012
-0.266088
0.776605
-0.483039
-0.550919
-0.698982
0.681249
0.813082
0.309612
0.61423
0.382799
0.00733569
-0.0961261
-0.660056
-0.798374
0.318134
0.722557
-0.444413
-0.249101
0.862554
0.382496
-0.0160476
0.622498
0.0593516
-0.42926
-0.740333
0.149443
-0.762058
-0.297773
0.669887
-0.806255
0.449452
0.47412
-0.449131
0.701901
-0.868818
-0.685496
-0.49882
-0.0251992
-0.354871
0.822566
-0.824236
0.0983335
-0.706844
-0.498161
-0.102763
0.522029
0.130623
0.423566
0.38139
0.251023
0.186782
0.418614
0.384661
-0.648261
0.111545
0.522435
0.852247
-0.46033
0.767374
0.835258
0.564637
0.370365
0.0550249
0.803566
-0.202351
0.664253
0.727538
0.0255777
0.286728
0.827304
-0.731703
-0.560343
0.572081
-0.80884
0.221721
0.774827
-0.523913
-0.0857019
0.695054
-0.22714
0.106818
0.478737
0.234163
-0.0367051
-0.470454
-0.121454
-0.041791
-0.758754
-0.537622
-0.290541
0.808518
0.514076
-0.856752
0.675619
-0.372953
0.619137
0.27253
-0.71676
-0.627898
0.0536041
-0.0326963
-0.863803
-0.627218
-0.223499
0.0376949
-0.465999
-0.258519
-0.653142
-0.337797
0.400898
-0.438923
-0.812602
0.0421306
-0.0542522
0.0308957
0.549433
0.736551
-0.313263
-0.691296
0.551959
0.281372
0.711339
0.203633
-0.741631
0.576448
-0.0473981
-0.570159
0.173417
0.51824
-0.801539
0.546071
-0.0978028
0.454664
-0.186508
-0.815907
-0.797019
-0.80315
0.840963
-0.645363
-0.671774
0.602103
0.331279
-0.718844
-0.320778
0.427565
-0.602147
0.504009
-0.431875
0.164862
-0.458138
0.583552
0.330573
-0.636996
0.501489
0.178648
0.30409
-0.424631
-0.44468
-0.53749
-0.782073
0.301713
0.681256
-0.816147
0.737806
-0.0469554
-0.586108
-0.519942
0.411592
-0.855122
-0.341153
0.0120381
0.221727
-0.314019
-0.504529
0.832861
0.0934804
-0.377919
-0.0896947
0.0342334
-0.696262
0.11773
0.0981154
0.125637
-0.221155
0.226391
-0.765196
-0.131353
-0.214258
0.173822
0.637361
-0.324945
0.260004
0.819956
-0.380671
-0.0356316
0.630925
-0.778022
-0.828825
-0.400326
0.710579
0.400493
0.0871988
0.190833
-0.618863
-0.0944408
0.175136
0.299201
-0.618667
-0.440591
-0.739151
0.846446
-0.713326
0.746192
0.143411
-0.848026
0.334825
-0.798512
0.209221
-0.471079
-0.0269698
-0.240238
-0.00438813
-0.658589
-0.839439
0.868139
0.432182
-0.773673
0.748348
0.316531
-0.188126
-0.378204
0.294983
0.69462
-0.306396
-0.618342
-0.56357
0.273529
0.7373
0.0424013
0.625326
0.57779
-0.586179
-0.11527
-0.0790815
-0.595808
-0.163849
-0.656835
-0.0682314
-0.0088229
-0.803779
-0.19281
-0.641064
0.854768
-0.0119798
-0.438669
-0.470513
0.116823
0.454773
-0.22122
0.0882777
0.460861
-0.805439
-0.748792
-0.558313
0.256114
-0.377149
-0.84002
-0.836639
0.125425
0.338754
-0.31965
-0.439461
-0.845347
0.343882
-0.13396
-0.746769
-0.529394
0.222313
0.304399
0.5494
0.396428
-0.620461
0.460002
-0.313839
0.845034
0.848903
-0.153566
0.672696
0.342422
-0.0255882
0.57239
0.856686
0.160574
-0.139296
-0.0544871
-0.0685317
0.363108
0.564883
0.678486
0.181055
-0.27829
0.561893
-0.614735
-0.184858
0.109747
0.411703
0.408956
-0.848847
-0.0607045
0.451769
-0.42893
-0.311912
-0.503097
-0.159338
0.592789
0.0190685
-0.321904
-0.604173
-0.0175213
0.865729
0.46719
0.404286
-0.532794
-0.360266
-0.463106
0.443144
0.842266
0.660153
0.382342
0.21218
-0.195845
-0.207059
-0.526347
-0.690439
0.241401
-0.642685
-0.709791
0.54118
0.12968
0.242229
0.275989
0.3718
0.841103
-0.524939
0.15018
-0.6209
0.383308
0.530487
0.355646
-0.719339
0.615682
-0.800353
0.761344
-0.362097
0.588924
0.0710189
-0.551168
0.157503
-0.821667
-0.0675893
0.744075
-0.782262
0.219518
-0.32146
-0.406416
-0.130304
-0.0199339
0.140745
-0.414798
-0.602651
0.765225
0.0728199
-0.558873
0.0493817
-0.851143
-0.591356
-0.194884
-0.353905
-0.618846
0.868504
-0.147124
0.225412
0.303374
0.190157
0.0802342
0.0976336
-0.24636
0.020999
0.441652
-0.0115298
0.423415
-0.314606
-0.280516
-0.466798
-0.80615
0.00466322
-0.250543
-0.450767
0.30456
-0.13626
-0.847251
-0.0101893
-0.789503
0.370489
-0.433559
-0.516628
-0.453444
0.565909
0.866582
0.73126
0.0991054
0.242989
0.231413
-0.57475
-0.844694
0.167879
-0.116791
-0.0966552
0.347598
0.281126
-0.288532
0.271753
0.604639
0.70958
-0.870973
0.711099
0.203287
0.0645131
-0.170845
0.204299
0.574094
-0.215043
-0.613242
0.689979
-0.843323
0.580569
0.830691
0.259618
0.677217
0.835073
-0.603224
-0.465795
0.317454
0.69257
0.768873
0.351759
-0.784543
0.740474
-0.582104
-0.672904
-0.344609
-0.054661
0.710514
0.373077
-0.0904009
-0.208939
0.250805
0.281942
-0.220667
0.868494
0.225972
0.483884
-0.225423
0.367048
-0.840918
-0.762848
0.223685
-0.568823
0.504851
0.587745
0.166125
0.609488
-0.474054
0.140908
0.0422081
0.351396
0.495003
0.47879
0.858144
-0.0388755
0.62318
0.673207
0.425777
-0.289827
0.258556
0.501179
0.222946
-0.494812
-0.0147689
-0.644499
0.181572
0.383149
-0.104998
0.736029
0.509603
-0.172749
-0.638126
0.838238
0.334007
-0.750124
-0.224597
0.244374
0.30233
-0.676891
0.112373
0.728139
-0.419082
0.646207
0.0543041
0.231745
0.503888
-0.794691
0.330999
0.810829
-0.177148
0.446595
0.83628
0.148044
0.767058
-0.168896
0.167445
-0.121595
-0.661098
0.622187
0.455458
0.490114
0.265507
-0.759707
0.332663
-0.397399
0.579625
-0.298469
-0.144588
0.836756
0.019081
0.0631056
-0.241032
0.0792752
0.654478
0.0738183
0.700413
-0.563381
0.0318123
-0.0598088
-0.492114
-0.555448
-0.124721
0.494022
0.173589
-0.522637
-0.580492
-0.0832387
-0.705602
-0.541792
-0.786696
-0.222539
-0.678883
-0.70725
0.147872
0.353005
0.700715
0.585883
0.433713
0.811532
0.161143
-0.236123
-0.331887
0.374661
0.4227
0.374004
0.337879
0.161353
0.463715
-0.498459
-0.777608
-0.610657
0.0377275
0.0774754
-0.140091
-0.565141
-0.23088
0.368728
0.402675
-0.467127
-0.398808
-0.716866
0.472999
0.397234
-0.164891
-0.71884
-0.0118705
0.178083
-0.00011532
-0.659747
-0.620206
-0.378404
0.280452
0.177104
-0.164782
-0.655705
0.619321
-0.439806
0.628295
0.242459
-0.422605
-0.685359
-0.767281
